<?xml version="1.0"?>
<opencv_storage>
<my_svm type_id="opencv-ml-svm">
  <svm_type>C_SVC</svm_type>
  <kernel><type>RBF</type>
    <gamma>8.9999999999999997e-002</gamma></kernel>
  <C>10.</C>
  <term_criteria><epsilon>1.1920928955078125e-007</epsilon>
    <iterations>2147483647</iterations></term_criteria>
  <var_all>324</var_all>
  <var_count>324</var_count>
  <class_count>10</class_count>
  <class_labels type_id="opencv-matrix">
    <rows>1</rows>
    <cols>10</cols>
    <dt>i</dt>
    <data>
      0 1 2 3 4 5 6 7 8 9</data></class_labels>
  <sv_total>10</sv_total>
  <support_vectors>
    <_>
      8.49255472e-002 2.21596330e-001 2.80350298e-001 1.48834800e-003
      3.46022472e-002 0. 0. 0. 5.18410057e-002 2.80350298e-001
      2.80350298e-001 2.80350298e-001 2.48057971e-004 2.24093255e-003 0.
      0. 0. 2.80350298e-001 1.36646494e-001 2.80350298e-001
      2.80350298e-001 8.93008430e-003 2.40428388e-001 0. 0. 0.
      8.95644054e-002 2.80350298e-001 2.57124901e-001 2.80350298e-001
      1.48834730e-003 1.81987658e-002 0. 0. 0. 2.80350298e-001
      3.47986877e-001 1.04727626e-001 7.06939027e-002 0. 0. 0. 0. 0.
      3.47986877e-001 3.47986877e-001 0. 0. 0. 0. 0. 5.76780289e-002
      1.92749929e-002 3.47986877e-001 3.47986877e-001 6.57171607e-002
      5.40647469e-002 0. 0. 0. 0. 0. 3.47986877e-001 3.47986877e-001 0.
      0. 0. 0. 0. 2.77930107e-002 9.28795245e-003 3.47986877e-001
      3.08446556e-001 0. 0. 0. 0. 0. 2.96715826e-001 1.04349315e-001
      3.08446556e-001 1.22233965e-001 0. 0. 0. 5.23719005e-003 0.
      3.08446556e-001 2.03262314e-001 1.28511235e-001 3.08446556e-001 0.
      0. 0. 0. 0. 2.61190623e-001 1.04127131e-001 3.08446556e-001
      1.40977547e-001 0. 0. 0. 1.89027280e-001 0. 3.08446556e-001
      3.08446556e-001 1.56670704e-001 5.21177538e-002 1.60310268e-001
      3.13992590e-001 4.91810031e-003 3.13992590e-001 0. 2.13821113e-001
      7.14553073e-002 3.95854488e-002 1.17516525e-001 7.14677423e-002
      1.47343338e-001 8.19683366e-004 3.35960723e-002 0. 4.95545529e-002
      1.65602621e-002 1.00806803e-001 9.90910083e-002 4.51398594e-003
      1.35075673e-002 0. 3.13992590e-001 0. 3.13992590e-001
      3.13992590e-001 1.21170081e-001 3.13992590e-001 7.52330874e-004
      2.25126091e-003 0. 2.96695624e-002 0. 3.13992590e-001
      2.16934651e-001 3.13992590e-001 2.10936606e-001 2.61606351e-002
      2.43476275e-002 0. 0. 0. 0. 0. 2.05889553e-001 2.40150869e-001 0.
      0. 0. 0. 0. 1.10890139e-002 3.70576303e-003 2.51675904e-001
      4.40135092e-001 0. 0. 0. 0. 0. 7.67358467e-002 5.37232235e-002
      4.40135092e-001 4.40135092e-001 2.13861261e-002 4.67338115e-002 0.
      0. 0. 0. 0. 4.40135092e-001 8.45381692e-002 6.15472160e-003
      1.84172038e-002 0. 0. 0. 7.32930452e-002 3.21595445e-002
      9.65263098e-002 5.25662415e-002 7.60634989e-002 2.35936806e-001 0.
      3.25343311e-001 0. 3.25343311e-001 1.64463043e-001 5.73614947e-002
      3.25343311e-001 1.27761126e-001 2.61641026e-001 0. 0. 0. 0. 0.
      3.22932273e-001 1.81182042e-001 3.25343311e-001 3.25343311e-001
      7.41961552e-003 3.25343311e-001 0. 1.77828651e-002 1.90295640e-003
      1.46945477e-001 1.05252266e-001 0. 0. 0. 1.22139491e-001 0.
      3.15204501e-001 3.15204501e-001 1.43444628e-001 3.15204501e-001 0.
      0. 0. 7.05849240e-003 0. 3.15204501e-001 2.99102038e-001
      3.15204501e-001 4.26882245e-002 0. 0. 0. 0. 0. 2.17642933e-001
      1.08768210e-001 6.14713766e-002 3.02512407e-001 0. 0. 0. 0. 0.
      2.88350552e-001 1.58692420e-001 3.15204501e-001 3.50180238e-001 0.
      0. 0. 0. 0. 6.84470311e-002 4.05037366e-002 3.50180238e-001
      3.50180238e-001 2.01890394e-002 4.85109054e-002 0. 0. 0. 0. 0.
      3.50180238e-001 3.50180238e-001 0. 0. 0. 0. 0. 5.59239574e-002
      3.04096844e-002 3.50180238e-001 3.50180238e-001 1.79423857e-002
      4.50657606e-002 0. 0. 0. 0. 0. 3.50180238e-001 3.14297289e-001
      1.73261687e-001 3.14297289e-001 0. 0. 0. 0. 0. 3.14297289e-001
      2.06577256e-001 3.14297289e-001 3.14297289e-001 5.73883066e-003
      1.04984440e-001 0. 0. 0. 1.76321030e-001 3.14297289e-001
      9.13317725e-002 2.34266281e-001 0. 0. 0. 0. 0. 3.14297289e-001
      9.58435982e-002 1.13826782e-001 3.11338216e-001 0. 0. 0. 0. 0.
      9.08097327e-002</_>
    <_>
      1.75258055e-001 0. 0. 0. 2.88499862e-001 0. 2.42669936e-002
      8.10960401e-003 1.75258055e-001 1.07948430e-001 0. 0. 0.
      9.80484709e-002 0. 9.70679522e-003 3.24384077e-003 1.07948430e-001
      3.80293459e-001 6.52850196e-002 1.95356905e-001 0. 3.80293459e-001
      0. 1.68157071e-001 5.62316328e-002 3.80293459e-001 3.80293459e-001
      0. 0. 0. 1.30788311e-001 0. 5.82407527e-002 1.95116661e-002
      3.80293459e-001 7.38391131e-002 0. 0. 0. 0. 0. 0. 0.
      7.38391131e-002 8.61733556e-002 0. 0. 0. 0. 0. 0. 0.
      8.61733556e-002 4.92272109e-001 0. 0. 0. 0. 0. 0. 8.72232613e-006
      4.92272109e-001 4.92272109e-001 0. 0. 0. 0. 0. 0. 0.
      4.92272109e-001 7.53946826e-002 1.48245143e-002 0. 0. 0. 0. 0. 0.
      7.42740482e-002 7.20978752e-002 3.70612890e-002 0. 0.
      1.92694366e-002 0. 0. 0. 6.92962706e-002 4.17767286e-001
      9.45242196e-002 0. 0. 4.26218957e-002 3.01668346e-002
      8.66933819e-003 0. 4.17767286e-001 4.17767286e-001 2.29803875e-001
      0. 0. 4.17767286e-001 1.81000933e-001 5.20160124e-002 0.
      4.17767286e-001 3.29643190e-001 4.49356921e-002 1.34464204e-001 0.
      3.29643190e-001 0. 1.09678686e-001 3.66720259e-002 3.29643190e-001
      3.29643190e-001 0. 0. 0. 1.99221559e-002 0. 1.73873492e-002
      5.83625492e-003 3.29643190e-001 3.10466766e-001 3.99061525e-003
      1.19413966e-002 0. 7.85335079e-002 0. 4.96577248e-002
      1.65947806e-002 3.10466766e-001 3.29643190e-001 0. 0. 0. 0. 0. 0.
      0. 3.29643190e-001 3.52929503e-001 0. 0. 0. 0. 0. 0.
      3.34108677e-006 3.52929503e-001 3.52929503e-001 0. 0. 0. 0. 0. 0.
      0. 3.52929503e-001 3.52929503e-001 0. 0. 0. 0. 0. 0. 0.
      3.52929503e-001 3.52929503e-001 0. 0. 0. 0. 0. 0. 0.
      3.52929503e-001 3.18439215e-001 2.19557285e-002 0. 0.
      4.67344113e-002 1.18682701e-002 3.08519825e-002 9.17041767e-003
      3.18439215e-001 3.18439215e-001 5.23294508e-002 0. 0.
      3.18439215e-001 7.12095946e-002 8.90673995e-002 2.29260456e-002
      3.18439215e-001 3.18439215e-001 0. 0. 0. 2.01230608e-002 0.
      3.65883708e-002 1.22272233e-002 3.18439215e-001 2.77744979e-001 0.
      0. 0. 3.18439215e-001 0. 9.14709345e-002 3.05680577e-002
      2.77744979e-001 4.98753130e-001 0. 0. 0. 0. 0. 0. 0.
      4.98753130e-001 4.98753130e-001 0. 0. 0. 0. 0. 0. 0.
      4.98753130e-001 0. 0. 0. 0. 0. 0. 0. 0. 0. 0. 0. 0. 0. 0. 0. 0. 0.
      0. 4.98753130e-001 0. 0. 0. 0. 0. 0. 0. 4.98753130e-001
      4.98753130e-001 0. 0. 0. 0. 0. 0. 0. 4.98753130e-001 0. 0. 0. 0.
      0. 0. 0. 0. 0. 0. 0. 0. 0. 0. 0. 0. 0. 0. 4.12351519e-001 0. 0. 0.
      0. 0. 1.51624665e-001 5.06704301e-002 4.12351519e-001
      4.12351519e-001 0. 0. 0. 3.61183554e-001 0. 3.79061729e-001
      1.26676083e-001 4.12351519e-001 0. 0. 0. 0. 0. 0. 0. 0. 0. 0. 0.
      0. 0. 0. 0. 0. 0. 0.</_>
    <_>
      7.43658319e-002 2.90007889e-001 3.64894509e-001 2.33924226e-003
      3.64894509e-001 0. 0. 0. 7.43658319e-002 5.61631285e-002
      1.18997157e-001 3.60140651e-001 3.89873690e-004 2.08966956e-001 0.
      0. 0. 5.61631285e-002 7.67701911e-003 2.75703311e-001
      3.64894509e-001 5.84810600e-003 3.64894509e-001 2.06718538e-002
      6.63971677e-002 1.38485692e-002 7.67701911e-003 3.07080755e-003
      7.26880580e-002 2.33781636e-001 9.74684313e-004 1.82935402e-001
      3.44530889e-003 1.10661946e-002 2.30809487e-003 3.07080755e-003
      1.62896719e-002 1.28576886e-002 4.10637595e-002 0. 7.89644644e-002
      0. 0. 0. 1.62896719e-002 7.00691110e-003 7.31769353e-002
      2.18972474e-001 6.22683279e-002 5.41734844e-002 0. 1.34141697e-002
      2.35510301e-002 7.00691110e-003 0. 6.87981322e-002 2.42281601e-001
      0. 1.31607447e-002 0. 0. 0. 0. 2.77870923e-001 5.80883026e-001
      5.80883026e-001 1.37072667e-001 2.89510667e-001 0. 3.35354246e-002
      5.88775836e-002 4.20414545e-002 1.45841436e-002 9.37749594e-002
      2.87632585e-001 3.37277018e-002 1.51466042e-001 0. 1.17655257e-002
      2.06565335e-002 1.45841436e-002 5.61547466e-002 1.10926300e-001
      3.49490553e-001 1.95504632e-002 3.86405140e-001 0. 8.82414449e-003
      1.54924002e-002 5.61547466e-002 1.01693973e-001 2.27155373e-001
      3.86405140e-001 6.90479726e-002 3.86405140e-001 0. 2.94138175e-002
      5.16413450e-002 3.57296579e-002 3.72714736e-002 8.10504034e-002
      2.40409553e-001 3.00429389e-002 3.86405140e-001 0. 2.20603626e-002
      3.87310050e-002 2.62774229e-002 4.94955247e-003 4.36920188e-002
      1.65024370e-001 1.12984504e-003 3.08147401e-001 2.41333507e-002
      3.08147401e-001 8.58643278e-002 4.94955247e-003 2.96710227e-002
      4.33855802e-002 6.79991692e-002 2.72819685e-004 8.04709941e-002
      4.02222434e-003 1.15130268e-001 3.37985605e-002 2.30302271e-002
      1.00194432e-001 6.40059402e-003 7.82896485e-003 0. 3.08147401e-001
      3.48913521e-002 3.08147401e-001 2.77730197e-001 1.00194432e-001
      3.08147401e-001 2.65021771e-001 2.86266655e-001 5.07072953e-004
      3.58768515e-002 5.68090146e-003 3.08147401e-001 1.19361572e-001
      3.08147401e-001 1.45173846e-002 1.27648443e-001 3.01193357e-001
      1.66508369e-002 1.44572398e-002 0. 1.65004609e-003 5.51416422e-004
      1.04835033e-002 4.06279191e-002 3.55880857e-001 3.55880857e-001
      5.80398887e-002 1.08730339e-001 0. 1.63417903e-003 2.86910031e-003
      4.58113430e-003 2.20423281e-001 3.55880857e-001 3.55880857e-001
      4.62945402e-002 3.61431055e-002 0. 9.90027189e-003 3.30849737e-003
      1.38200566e-001 2.33193655e-002 3.55880857e-001 3.55880857e-001
      1.15195006e-001 1.63420662e-001 0. 0. 0. 8.83304793e-003
      5.28424270e-002 1.79909408e-001 4.23745543e-001 4.18982133e-002
      4.23745543e-001 0. 5.75420354e-003 1.01025570e-002 1.23774437e-002
      1.58471707e-002 1.75213497e-002 5.16934991e-002 1.34493681e-002
      4.23745543e-001 0. 4.31565288e-003 7.57691776e-003 9.10300668e-003
      2.52395635e-003 7.65630826e-002 2.22837061e-001 2.73914393e-002
      4.23745543e-001 3.54379357e-004 0. 0. 2.52395635e-003
      6.30989159e-003 9.01410542e-003 2.73057651e-002 1.93868892e-003
      4.23745543e-001 4.72505752e-004 0. 0. 6.30989159e-003
      2.06633419e-001 3.51577736e-002 4.30036634e-002 0. 1.49937287e-001
      5.11790141e-002 2.93239385e-001 2.93239385e-001 2.06633419e-001
      2.93239385e-001 2.93239385e-001 2.93239385e-001 2.83268600e-004
      2.07698578e-003 8.28767382e-003 2.56710917e-001 1.25985309e-001
      2.93239385e-001 1.39266774e-001 2.63683274e-002 3.22527476e-002 0.
      1.33620156e-002 8.67276546e-003 2.05520913e-001 1.08878560e-001
      1.39266774e-001 2.79807508e-001 1.25634030e-001 2.18232319e-001 0.
      0. 1.38127885e-003 8.69476199e-002 4.59345877e-002 1.98647499e-001
      3.64891976e-001 3.64891976e-001 3.64891976e-001 4.13414650e-002
      2.35292427e-002 0. 1.14129512e-002 3.81400762e-003 3.30427945e-001
      7.05908388e-002 3.64891976e-001 3.64891976e-001 9.99197364e-002
      2.55783796e-001 0. 0. 0. 3.62220220e-002 1.85237020e-001
      1.38738289e-001 2.39691287e-001 0. 0. 0. 0. 0. 7.91303813e-002
      3.00297756e-002 3.68956029e-002 5.12983575e-002 0. 1.19860135e-001
      0. 0. 0. 2.81699523e-002 5.92262819e-002 7.06807151e-002
      2.12604657e-001 1.32330041e-002 4.00652319e-001 2.66992766e-003 0.
      0. 5.92262819e-002 1.20729782e-001 1.06318757e-001 3.08881879e-001
      0. 4.00652319e-001 3.55990301e-003 0. 0. 1.20729782e-001
      1.07120946e-001 6.17649890e-002 1.79883301e-001 0. 3.03033978e-001
      2.00244552e-003 0. 0. 1.07120946e-001 1.72627300e-001
      1.09111875e-001 3.14151943e-001 0. 4.00652319e-001 2.66992697e-003
      0. 0. 1.72627300e-001</_>
    <_>
      9.13425088e-002 1.86185330e-001 3.75404894e-001 0. 1.50171354e-001
      0. 0. 0. 9.13425088e-002 6.85068816e-002 7.14342669e-002
      2.15680242e-001 0. 1.64443538e-001 0. 0. 0. 6.85068816e-002
      5.13325334e-002 3.75404894e-001 3.75404894e-001 9.86432433e-002
      3.75404894e-001 5.37624303e-003 2.32737400e-002 0. 5.13325334e-002
      3.84994000e-002 1.29053771e-001 3.75404894e-001 2.47970270e-003
      3.07312131e-001 8.96040408e-004 3.87895619e-003 0. 3.84994000e-002
      0. 0. 0. 0. 1.27532274e-001 0. 0. 0. 0. 0. 0. 0. 0. 0. 0. 0. 0. 0.
      3.95952702e-001 4.42000255e-002 1.32262826e-001 6.04730584e-002
      3.96820009e-001 1.22786488e-003 9.40072071e-003 0. 3.95952702e-001
      3.96820009e-001 3.31500173e-002 9.91971120e-002 4.53547910e-002
      3.96820009e-001 1.63715286e-003 1.25342915e-002 0. 3.96820009e-001
      0. 0. 0. 0. 7.69634917e-002 0. 0. 0. 0. 1.55521452e-001
      5.40138520e-002 1.89710453e-001 0. 4.79734629e-001 3.52815464e-002
      2.51357913e-001 6.54758513e-002 1.65123641e-001 1.89168043e-002 0.
      0. 0. 2.21318007e-001 5.86617462e-005 4.49123298e-004 0.
      1.89168043e-002 6.17222525e-002 4.05103862e-002 1.42282829e-001 0.
      4.79734629e-001 2.03004703e-001 4.79734629e-001 1.37382299e-001
      6.55631274e-002 0. 1.22461960e-001 3.27596337e-001 7.91453570e-002
      3.27596337e-001 4.13423330e-002 1.63284197e-001 2.16939915e-002 0.
      0. 4.81576174e-002 1.69549316e-001 4.65539889e-003 2.03119993e-001
      6.89038867e-003 3.15083154e-002 5.05074067e-003 0. 5.20836748e-002
      1.91094000e-002 8.40614438e-002 1.19497664e-002 3.27596337e-001
      1.44830793e-001 3.27596337e-001 2.07492828e-001 7.01437891e-002
      1.77867055e-001 2.45111123e-001 3.27596337e-001 2.12789476e-002
      2.14813590e-001 1.20129297e-002 2.67012417e-001 1.21284530e-001
      1.81427479e-001 5.45518696e-002 6.01492822e-002 2.18584523e-001
      1.93671640e-002 3.24140042e-001 1.62242744e-002 1.36267887e-002
      2.77220481e-003 5.45518696e-002 7.27358088e-002 3.46145853e-002
      1.32526338e-001 1.45253735e-002 3.24140042e-001 3.97482887e-002
      2.78471168e-002 6.93051284e-003 7.27358088e-002 1.15715630e-001
      2.83417225e-001 3.24140042e-001 2.19940003e-002 3.24140042e-001
      6.80200011e-002 1.81986451e-001 4.24344875e-002 1.03631429e-001
      3.99104916e-002 6.55965209e-002 2.34884635e-001 5.81014855e-003
      3.24140042e-001 2.32842132e-001 3.24140042e-001 1.09953865e-001
      6.58231825e-002 1.51141826e-002 0. 0. 0. 1.93828955e-001
      1.44772101e-002 9.10818391e-003 2.55017565e-003 1.51141826e-002 0.
      9.03166179e-003 3.98769863e-002 2.67177615e-002 4.49932635e-001
      8.11345056e-002 3.08137983e-001 4.86454330e-002 0. 2.66697612e-002
      3.40270922e-002 9.17061716e-002 0. 1.99184507e-001 1.19856730e-001
      2.71682918e-001 8.65241513e-002 9.88610908e-002 6.54212665e-003
      2.88842916e-001 4.49932635e-001 4.24203388e-002 4.49932635e-001
      4.04871814e-003 4.10322510e-002 8.37898627e-003 3.38341631e-002
      1.32920802e-001 2.38680094e-002 6.50108382e-002 5.31058875e-004
      2.39954203e-001 1.19071953e-001 2.59496182e-001 2.07057565e-001
      1.43372551e-001 2.59496182e-001 2.59496182e-001 2.59496182e-001
      3.93490419e-002 1.63552091e-001 1.94439210e-003 2.58361995e-001
      1.32223934e-001 2.59496182e-001 1.84366867e-001 4.38139588e-002
      1.11717418e-001 3.98294098e-004 4.47248630e-002 4.34533469e-002
      2.59496182e-001 1.20787732e-001 1.80885583e-001 2.41688147e-001
      1.62311107e-001 2.59496182e-001 1.68548394e-002 8.74963403e-002 0.
      1.42785922e-001 6.87336028e-002 1.96099862e-001 1.37085363e-001
      2.02231854e-001 2.65527695e-001 2.71471627e-002 2.65527695e-001
      5.17898835e-002 2.65527695e-001 9.54932123e-002 1.21191934e-001
      8.99983421e-002 1.79233477e-002 5.77698909e-002 0. 2.58287787e-001
      1.40594780e-001 2.65527695e-001 2.13218316e-001 1.53849006e-001
      7.56421089e-002 7.20716715e-002 1.99900210e-001 1.13092316e-002
      1.63649946e-001 3.64739485e-002 2.65527695e-001 1.17040440e-001
      8.44171345e-002 2.65527695e-001 1.58381567e-003 4.73938044e-003 0.
      8.04626793e-002 5.06624766e-002 2.65527695e-001 2.64604181e-001
      2.65527695e-001 1.15561292e-001 6.36253431e-002 1.67691946e-001 0.
      3.48635539e-002 4.31160368e-002 2.56662577e-001 1.18910149e-001
      2.20245019e-001 5.85347414e-002 3.09828520e-001 3.09828520e-001
      4.00571618e-003 2.50044584e-001 0. 2.81792246e-002 1.69417374e-002
      1.05002820e-001 3.09828520e-001 8.34813491e-002 2.23350585e-001 0.
      2.10825121e-003 7.61674158e-003 1.77925095e-001 1.08943895e-001
      3.09828520e-001 1.92462459e-001 2.71212876e-001 3.09828520e-001 0.
      6.57394007e-002 0. 2.11344156e-002 1.27063021e-002 2.13944390e-001</_>
    <_>
      0. 0. 0. 0. 0. 0. 0. 0. 0. 0. 7.01645836e-002 2.09958434e-001 0.
      0. 0. 0. 0. 0. 0. 7.01645836e-002 2.09958434e-001 0. 0. 0. 0. 0.
      0. 0. 6.69070005e-001 6.69070005e-001 0. 0. 0. 0. 0. 0. 0.
      1.03440814e-001 3.09533447e-001 0. 0. 0. 0. 0. 0. 7.03787655e-002
      2.47838929e-001 3.66808921e-001 0. 2.87720561e-001 4.98903170e-003
      1.09272720e-002 1.28198881e-002 7.03787655e-002 0. 3.46244812e-001
      3.66808921e-001 0. 0. 0. 0. 0. 0. 3.11062858e-002 2.74565607e-001
      3.66808921e-001 0. 3.66808921e-001 0. 0. 0. 3.11062858e-002
      9.83352587e-002 1.36996254e-001 4.09943819e-001 0. 4.33043092e-001
      2.97140125e-002 3.67526375e-002 4.31182347e-002 9.83352587e-002
      1.26402956e-002 3.57535412e-003 1.06987813e-002 0. 4.18232203e-001
      2.22855061e-002 1.47010526e-002 1.72472931e-002 1.26402956e-002
      3.33647877e-002 6.66651055e-002 1.99487135e-001 0. 4.33043092e-001
      0. 0. 0. 3.33647877e-002 0. 0. 0. 0. 4.33043092e-001 0. 0. 0. 0.
      5.80447307e-003 8.79621878e-002 2.98102379e-001 0. 3.68965156e-002
      0. 0. 0. 5.80447307e-003 8.07514414e-002 3.37412447e-001
      3.38466674e-001 0. 4.75581773e-002 0. 0. 0. 8.07514414e-002
      1.14164345e-001 1.25187993e-001 3.38466674e-001 0. 3.04991692e-001
      0. 4.52694632e-002 1.51282968e-002 1.14164345e-001 3.38466674e-001
      1.74344435e-001 3.38466674e-001 0. 1.69824675e-001 0.
      1.81077812e-002 6.05131825e-003 3.38466674e-001 1.11533724e-001
      2.64545947e-001 3.25805515e-001 0. 8.21980368e-003 0. 0. 0.
      1.11533724e-001 9.60441232e-002 1.00140125e-001 2.63196707e-001
      2.02864837e-002 3.25805515e-001 3.18908086e-003 4.92999330e-003
      1.30571343e-003 9.60441232e-002 3.25805515e-001 5.60682341e-002
      2.19884902e-001 0. 2.05495115e-002 0. 0. 0. 3.25805515e-001
      3.25805515e-001 4.88033704e-002 6.10840060e-002 2.73058377e-002
      3.25805515e-001 4.25210735e-003 4.02530581e-002 1.25973802e-002
      3.25805515e-001 4.75322567e-002 2.15747524e-002 3.39604728e-002
      1.70253832e-002 3.46733600e-001 1.48614282e-002 2.99779084e-002
      6.49451790e-003 6.50363714e-002 8.97968784e-002 0. 0. 0.
      3.46733600e-001 1.11460695e-002 3.82264555e-002 5.11342706e-003
      1.31815106e-001 3.05841625e-001 3.88289653e-002 6.73437342e-002
      2.38990691e-002 3.46733600e-001 1.98152345e-002 9.02124047e-002
      2.35910136e-002 3.31496894e-001 3.46733600e-001 1.21798432e-002
      5.64690083e-002 8.98921746e-004 3.46733600e-001 1.48614254e-002
      1.25472978e-001 1.21584339e-002 3.46733600e-001 3.74229163e-001
      6.11434802e-002 1.98168665e-001 0. 3.74229163e-001 0.
      1.45497888e-001 4.86229695e-002 3.74229163e-001 3.74229163e-001
      3.49126272e-002 1.58804953e-001 0. 1.67875901e-001 0.
      5.81991561e-002 1.94491856e-002 3.74229163e-001 1.17424004e-001 0.
      0. 0. 2.23849267e-002 0. 2.42496468e-002 8.10382795e-003
      1.17424004e-001 2.66687930e-001 0. 0. 0. 3.73082096e-003 0.
      9.69985873e-003 3.24153062e-003 2.66687930e-001 3.62687141e-001
      5.85622503e-004 1.48562202e-002 0. 9.15097073e-003 0. 0. 0.
      3.62687141e-001 3.62687141e-001 3.38934846e-002 5.90583719e-002
      1.31851323e-002 3.62687141e-001 1.06930523e-003 1.63386628e-001
      5.42205572e-002 3.62687141e-001 1.70904905e-001 0. 0. 0. 0. 0. 0.
      0. 1.70904905e-001 2.12021768e-001 3.37702967e-002 3.96385863e-002
      1.35926269e-002 3.62687141e-001 0. 1.37942985e-001 4.60982434e-002
      2.12021768e-001 3.18534553e-001 4.11172360e-002 1.31294936e-001
      2.67712083e-002 3.18534553e-001 3.76267661e-003 1.38542369e-001
      4.44707051e-002 3.18534553e-001 3.18534553e-001 3.42653506e-002
      1.45756885e-001 1.68454871e-002 3.18534553e-001 2.82200705e-003
      6.51571378e-002 6.21290831e-003 3.18534553e-001 1.87051460e-001
      6.76486194e-002 9.53916386e-002 4.78297994e-002 3.18534553e-001 0.
      1.30902544e-001 4.37454432e-002 1.63107380e-001 1.73333243e-001
      3.11858114e-002 6.23563826e-002 3.58723477e-002 2.56202072e-001 0.
      1.66507978e-002 5.56441862e-003 1.41407803e-001</_>
    <_>
      6.78119063e-002 9.66712087e-002 2.13624701e-001 0. 2.83619226e-003
      0. 6.73259841e-003 2.31655315e-003 1.89412106e-002 1.65877432e-001
      2.31531888e-001 3.12682211e-001 0. 1.39660120e-001 3.15703563e-002
      6.90349191e-002 7.06514195e-002 7.14417845e-002 1.75975770e-001
      2.68150747e-001 3.24924588e-001 3.01442295e-003 3.24924588e-001
      7.70459557e-003 5.46722226e-002 1.60310678e-002 8.74549076e-002
      1.45344779e-001 2.70678639e-001 3.24924588e-001 0. 3.24924588e-001
      8.29203054e-002 2.64487922e-001 9.39033180e-002 7.95150697e-002
      1.75360814e-001 1.62604541e-001 1.45944297e-001 0. 4.16799545e-001
      8.73926580e-002 1.52899802e-001 1.58744708e-001 8.96237940e-002
      2.99970107e-003 0. 0. 0. 2.21803427e-001 1.45654408e-002
      2.40848027e-002 2.08544433e-002 2.99970107e-003 7.95507133e-002
      1.07558489e-001 1.48860514e-001 0. 4.16799545e-001 1.42381787e-001
      4.16799545e-001 1.72541276e-001 5.52690998e-002 4.99950140e-004 0.
      0. 0. 4.16799545e-001 1.69287343e-002 1.12718686e-001
      4.02560718e-002 4.99950140e-004 6.27687499e-002 2.35709399e-002
      1.48014590e-001 3.92461382e-003 2.57609367e-001 3.98575608e-003
      1.86647072e-001 4.18048687e-002 2.20804587e-002 1.61673993e-001
      3.25035602e-002 1.97352767e-001 1.23662790e-002 3.76844496e-001
      5.93084767e-002 3.76844496e-001 9.69348997e-002 5.99532649e-002
      9.66226961e-003 7.13866623e-003 5.29979244e-002 5.56098716e-003
      3.44708949e-001 1.59430213e-003 2.36925647e-001 5.76901101e-002
      1.07773102e-003 3.42387818e-002 1.34427026e-002 8.18709359e-002
      8.06220472e-002 3.76844496e-001 6.86556771e-002 3.76844496e-001
      1.22182265e-001 6.46638405e-003 5.27562052e-002 8.04549307e-002
      2.35460311e-001 3.17096687e-003 3.95217538e-001 1.53043075e-002
      3.37417237e-002 8.63371231e-003 3.24657410e-002 1.94812007e-002
      4.78786677e-002 1.29265696e-001 0. 3.95217538e-001 9.60630700e-002
      3.14833760e-001 8.55053067e-002 1.29057905e-002 7.58092012e-003
      3.97119112e-002 6.34099245e-002 2.26119347e-002 3.95217538e-001
      8.71692877e-003 6.13763649e-003 1.58837507e-003 7.58092012e-003
      1.19891099e-003 8.58466327e-003 2.24939920e-002 8.83337483e-003
      3.95217538e-001 5.83392829e-002 3.80266845e-001 1.17643915e-001
      1.19891099e-003 2.75011105e-003 3.59482458e-003 7.43005751e-003 0.
      3.12989563e-001 6.62917346e-002 3.12989563e-001 1.46058112e-001
      6.14365702e-003 8.22195690e-003 1.06051413e-003 3.17345024e-003 0.
      2.04533011e-001 1.69278607e-002 1.95131361e-001 8.25480446e-002
      2.40508877e-002 3.32915485e-002 0. 0. 0. 3.12989563e-001
      4.89917099e-002 3.12989563e-001 3.12989563e-001 5.33000976e-002
      2.41948396e-001 1.05328172e-001 6.20810725e-002 0. 1.39175668e-001
      2.13929284e-002 3.12989563e-001 3.12989563e-001 3.12989563e-001
      5.19963019e-002 3.21436152e-002 9.61856619e-002 1.01944618e-002
      1.74417719e-001 2.50047818e-003 4.90965955e-002 1.93205569e-002
      4.57976684e-002 1.28218472e-001 7.48758391e-002 2.24056572e-001
      5.67971319e-002 2.99189687e-001 9.16416384e-003 8.61167386e-002
      2.58395728e-002 7.59947449e-002 2.99189687e-001 2.99189687e-001
      2.99189687e-001 1.19568976e-002 1.31807595e-001 3.33397067e-003
      9.00880024e-002 1.38873637e-001 2.99189687e-001 2.68921465e-001
      2.78779864e-001 2.99189687e-001 2.99456641e-002 2.99189687e-001 0.
      0. 0. 1.91646293e-001 1.43221423e-001 3.01665515e-001
      4.03230578e-001 8.70489255e-002 4.03230578e-001 0. 0. 0.
      1.43221423e-001 1.36476569e-002 6.40006438e-002 1.36413053e-001
      3.48195694e-002 4.03230578e-001 7.58986408e-003 4.03230578e-001
      1.54082835e-001 1.36476569e-002 1.36301607e-001 1.40342191e-001
      2.00317740e-001 1.45081533e-002 2.32655734e-001 0. 0. 0.
      1.36301607e-001 9.70384385e-003 2.88795866e-002 5.37819602e-002
      5.80326095e-003 3.74820046e-002 0. 3.30143981e-002 1.17085204e-002
      9.70384385e-003 1.28839418e-001 0. 0. 0. 1.22103281e-001
      7.68780848e-003 3.31734091e-001 3.17025930e-001 1.44504756e-001
      3.31734091e-001 1.90675482e-001 1.19102053e-001 0. 3.40251736e-002
      4.89776814e-003 3.31734091e-001 3.31734091e-001 3.31734091e-001
      7.00807273e-002 0. 0. 0. 8.04399082e-004 0. 1.16393313e-001
      4.08811048e-002 7.00807273e-002 3.28882992e-001 3.46312746e-002
      2.74491124e-002 0. 1.34066504e-004 0. 1.00642227e-001
      3.51212546e-002 3.08622450e-001 3.37315798e-001 3.37315798e-001
      3.37315798e-001 8.61146580e-003 7.22414330e-002 8.31043872e-004
      1.06219657e-001 1.70097932e-001 3.37315798e-001 2.03727320e-001
      3.37315798e-001 3.37315798e-001 2.20853016e-002 1.90326408e-001 0.
      0. 0. 1.59331352e-001 2.68871248e-001 1.13942802e-001
      1.13610953e-001 0. 0. 0. 7.91865215e-003 2.64628115e-003
      2.35068709e-001 2.99786944e-002 6.60524070e-002 7.39020631e-002 0.
      0. 0. 0. 0. 2.43449342e-002</_>
    <_>
      1.17050047e-004 4.97124679e-002 1.32129759e-001 0. 0. 0. 0. 0.
      1.17050047e-004 1.66405171e-001 2.49513850e-001 3.85251164e-001 0.
      6.12367410e-003 0. 0. 0. 1.00379691e-001 3.80888060e-002
      2.38262355e-001 3.85251164e-001 2.56908890e-002 1.93632632e-001 0.
      0. 0. 2.07730252e-002 3.10474664e-001 3.85251164e-001
      3.85251164e-001 2.53411569e-002 2.30822802e-001 4.26978022e-002
      4.23569568e-002 0. 1.78180456e-001 2.80125886e-001 1.38683185e-001
      2.80125886e-001 3.65924346e-003 1.44189438e-002 0. 0. 0.
      2.46041760e-001 2.80125886e-001 5.71305230e-002 8.38696361e-002
      4.87899082e-003 8.92087165e-003 0. 5.78614213e-002 4.47717160e-002
      2.80125886e-001 2.80125886e-001 2.78931171e-001 2.80125886e-001
      2.78344098e-002 2.16805518e-001 4.13336009e-002 4.10036482e-002 0.
      2.33380675e-001 2.80125886e-001 1.34474218e-001 2.24097446e-001
      3.02537568e-002 1.03044771e-001 6.88893208e-003 6.71203658e-002
      7.65812621e-002 2.80125886e-001 2.93573111e-001 8.95559322e-003
      6.43965043e-003 6.42616767e-004 2.48609344e-003 0. 2.74515480e-001
      1.35776311e-001 2.93573111e-001 8.83403718e-002 0. 0. 0.
      4.69934605e-002 0. 2.93573111e-001 1.46410659e-001 1.15738362e-001
      2.93573111e-001 2.23889835e-002 2.04791799e-002 3.85569921e-003
      2.28853188e-002 0. 2.93573111e-001 2.25468844e-001 2.93573111e-001
      1.04217850e-001 0. 0. 0. 2.93573111e-001 0. 2.93573111e-001
      2.93573111e-001 1.39560848e-001 2.89927386e-002 2.41289929e-001
      3.13341469e-001 8.93292055e-002 3.13341469e-001 0. 0. 0.
      1.81873441e-002 1.32573977e-001 2.91375488e-001 3.13341469e-001
      8.38623121e-002 3.13341469e-001 3.55854705e-002 4.58299406e-002
      6.48258533e-003 8.93569440e-002 8.44858736e-002 1.61534443e-001
      3.13341469e-001 1.20200589e-001 3.13341469e-001 0. 0. 0.
      7.20842481e-002 1.80272572e-002 6.84624091e-002 2.07601905e-001
      6.93849400e-002 3.13341469e-001 1.97221041e-002 1.15659095e-001
      3.86513099e-002 1.59603190e-002 1.18048467e-001 1.33449718e-001
      2.92935759e-001 3.48607525e-002 3.01370829e-001 4.99053709e-002
      1.67249277e-001 4.35043313e-002 9.82062072e-002 1.09255098e-001
      4.89099361e-002 1.08149044e-001 1.88867711e-002 2.31557369e-001
      8.31756182e-003 1.51329741e-001 6.43841997e-002 1.10880837e-001
      3.97098176e-002 3.15539283e-003 9.44213942e-003 1.50788873e-002
      3.01370829e-001 2.76584458e-002 3.01370829e-001 2.05153093e-001
      4.52290475e-002 2.88030982e-001 3.34177539e-002 2.50430815e-002
      2.51314766e-003 2.02934802e-001 4.60974080e-003 3.01370829e-001
      3.01370829e-001 2.99946576e-001 9.17288959e-002 1.29687209e-002
      3.40088606e-002 5.26340818e-003 4.75433357e-002 0. 1.59186080e-001
      8.03312063e-002 9.97709483e-002 4.64726575e-002 5.96604347e-002
      1.75629303e-001 1.07005890e-002 3.03094476e-001 0. 3.03094476e-001
      1.88980818e-001 5.31371944e-002 3.03094476e-001 2.02565730e-001
      2.65326202e-001 7.20512867e-003 4.23680954e-002 0. 1.51330471e-001
      1.42910615e-001 2.85792261e-001 2.25724801e-001 3.03094476e-001
      3.03094476e-001 2.15082821e-002 3.03094476e-001 0. 2.43990403e-002
      2.20708810e-002 1.61265567e-001 3.67618680e-001 2.73752421e-001
      2.76477635e-001 2.39207685e-001 3.67618680e-001 0. 0. 0.
      3.67618680e-001 5.28792329e-002 5.98567203e-002 8.25281739e-002
      3.89667265e-002 3.67618680e-001 2.71524861e-002 3.67618680e-001
      1.98181465e-001 3.65701392e-002 1.11682348e-001 3.22772712e-002 0.
      0. 1.56562209e-001 0. 0. 0. 9.53732505e-002 2.71818251e-003
      5.37954457e-003 0. 0. 1.60662178e-002 0. 8.76138210e-002
      2.92790756e-002 0. 6.68065399e-002 0. 0. 0. 2.61457175e-001
      8.94206204e-003 3.21630806e-001 2.47091517e-001 7.25817233e-002
      3.21630806e-001 5.29769212e-002 8.00953805e-002 0. 6.30642772e-002
      1.49034348e-003 3.21630806e-001 3.21630806e-001 3.21630806e-001
      4.01064008e-002 0. 0. 0. 0. 0. 1.97349489e-001 6.59509003e-002
      4.01064008e-002 3.21630806e-001 1.64738372e-002 4.92959991e-002 0.
      0. 0. 2.52756357e-001 8.44669566e-002 3.21630806e-001
      3.04141283e-001 2.64156580e-001 3.04141283e-001 2.03878945e-003
      7.74700055e-003 0. 1.56004816e-001 1.38873741e-001 3.04141283e-001
      2.73952246e-001 3.04141283e-001 3.04141283e-001 5.69139328e-003
      1.40694574e-001 0. 7.92225916e-003 1.30740786e-002 2.17953488e-001
      2.99231410e-001 6.39323965e-002 1.91310123e-001 0. 0. 0.
      3.30095030e-002 1.10312235e-002 2.99231410e-001 8.11856240e-002
      6.66437894e-002 1.99423611e-001 0. 0. 0. 0. 0. 8.11856240e-002</_>
    <_>
      1.64189294e-001 2.86092043e-001 3.98573399e-001 8.28306526e-002
      3.98573399e-001 0. 0. 0. 7.91488215e-002 6.43811747e-002
      1.27074510e-001 2.38424852e-001 5.80384471e-002 2.80481130e-001 0.
      0. 0. 5.18577285e-002 4.90103401e-002 1.11101918e-001
      2.00510621e-001 7.80213848e-002 3.98573399e-001 0. 0. 0.
      2.22994983e-002 9.75284632e-003 4.84694317e-002 1.05087772e-001
      4.11710255e-002 3.98573399e-001 0. 0. 0. 7.66560389e-003
      2.97687016e-002 2.45844517e-002 7.35660568e-002 0. 1.73332050e-001
      0. 0. 0. 2.97687016e-002 0. 0. 0. 0. 0. 0. 0. 0. 0.
      2.66157895e-001 1.22505881e-001 2.79833972e-001 0. 2.88886745e-002
      0. 0. 0. 1.86821699e-001 4.35295165e-001 4.35295165e-001
      4.35295165e-001 0. 0. 0. 0. 0. 4.35295165e-001 1.88154541e-002 0.
      0. 0. 0. 0. 0. 0. 1.72438975e-002 4.92483862e-002 0. 0. 0.
      6.92674716e-004 0. 0. 0. 4.53194864e-002 3.21859121e-001
      3.21859121e-001 3.21859121e-001 0. 0. 0. 3.85078602e-002
      1.09638553e-002 3.21859121e-001 3.21859121e-001 3.21859121e-001
      3.21859121e-001 0. 3.21859121e-001 0. 2.31047079e-001
      6.57831132e-002 3.21859121e-001 2.16477662e-002 1.38708046e-002
      1.77856125e-002 1.22975679e-002 3.42813820e-001 2.69336416e-003 0.
      0. 1.67770460e-002 1.27925247e-001 6.96002617e-002 1.23651840e-001
      4.91902698e-003 3.26528162e-001 1.07734557e-003 0. 0.
      9.56673026e-002 2.05376744e-001 1.19005471e-001 1.65232047e-001 0.
      3.42813820e-001 1.61601808e-002 2.10029911e-002 7.01884925e-003
      1.60895467e-001 3.42813820e-001 3.19436997e-001 3.42813820e-001 0.
      2.07098335e-001 6.46407111e-003 0. 0. 3.42813820e-001
      2.23195508e-001 1.11252449e-001 2.57689208e-001 0. 0. 0. 0. 0.
      1.58569366e-001 2.69421786e-001 2.69421786e-001 2.69421786e-001 0.
      0. 0. 0. 0. 2.69421786e-001 2.69421786e-001 2.48421133e-001
      2.69421786e-001 0. 0. 0. 0. 0. 2.69421786e-001 2.69421786e-001
      2.36584619e-001 2.69421786e-001 0. 0. 0. 0. 0. 2.69421786e-001
      2.90379912e-001 2.90379912e-001 2.90379912e-001 0. 0. 0.
      1.62677653e-002 4.63171443e-003 2.90379912e-001 2.90379912e-001
      2.46795878e-001 2.90379912e-001 0. 1.83331519e-001 0.
      9.76065546e-002 2.77902763e-002 2.90379912e-001 2.77977675e-001
      2.05611989e-001 2.90379912e-001 0. 0. 0. 0. 0. 2.27616504e-001
      1.26473963e-001 5.96232601e-002 1.31950557e-001 0. 1.61931161e-002
      0. 0. 0. 9.40712467e-002 3.20291102e-001 2.94908941e-001
      3.20291102e-001 0. 3.20291102e-001 1.59000903e-002 1.14746496e-001
      3.83463651e-002 3.20291102e-001 3.20291102e-001 3.20291102e-001
      3.20291102e-001 0. 7.23059997e-002 6.36003632e-003 0. 0.
      3.20291102e-001 1.32144332e-001 6.32482097e-002 1.21605948e-001 0.
      5.38385808e-002 0. 4.58985977e-002 1.53385429e-002 1.24299079e-001
      6.05168901e-002 5.23036607e-002 5.15228920e-002 0. 0. 0. 0. 0.
      5.46329506e-002 3.80996913e-001 3.80996913e-001 3.80996913e-001 0.
      0. 0. 0. 0. 3.80996913e-001 3.80996913e-001 1.98754996e-001
      3.80996913e-001 0. 0. 0. 0. 0. 2.90463716e-001 2.07136963e-002
      2.08840314e-002 8.65165982e-003 0. 0. 0. 0. 0. 2.07136963e-002 0.
      0. 0. 0. 0. 0. 0. 0. 0. 4.94233906e-001 4.94233906e-001
      4.94233906e-001 0. 0. 0. 0. 0. 4.94233906e-001 9.48555395e-002 0.
      0. 0. 0. 0. 0. 0. 9.48555395e-002 0. 0. 0. 0. 0. 0. 0. 0. 0. 0. 0.
      0. 0. 0. 0. 0. 0. 0.</_>
    <_>
      2.45155826e-001 2.09768564e-001 2.66160727e-001 1.78252310e-002
      8.00775588e-002 4.87872306e-003 8.38640630e-002 8.34290758e-002
      2.39584699e-001 2.66160727e-001 3.93132158e-002 8.74021053e-002
      6.75149029e-004 1.33125365e-001 2.11052448e-002 2.66160727e-001
      2.10039064e-001 2.66160727e-001 1.32236123e-001 1.67622223e-001
      2.66160727e-001 2.37669684e-002 2.66160727e-001 2.53394544e-002
      1.25268802e-001 9.16301608e-002 1.14237703e-001 9.90729257e-002
      4.43028808e-002 1.09892488e-001 9.18795634e-003 2.66160727e-001
      3.55428010e-002 2.66160727e-001 2.30056122e-001 1.21773846e-001
      9.21729952e-002 8.03016499e-002 2.32584760e-001 2.58774473e-003
      1.71020404e-001 7.74635095e-003 2.72561282e-001 1.17666490e-001
      8.36271644e-002 2.55533099e-001 2.49468505e-001 2.72561282e-001
      1.94080838e-003 7.74498209e-002 1.45839876e-004 1.19546354e-001
      5.49917631e-002 2.06677556e-001 9.29672271e-002 7.87864253e-002
      2.35758513e-001 7.93342479e-003 2.72561282e-001 1.48968035e-002
      2.72561282e-001 1.86930463e-001 9.14936215e-002 1.48395598e-001
      1.24539651e-001 2.72561282e-001 1.45560608e-003 2.34199554e-001
      2.46595945e-002 2.72561282e-001 1.06637761e-001 1.42779887e-001
      2.89472401e-001 1.50395304e-001 2.71508723e-001 0. 4.79769818e-002
      2.54299268e-002 2.90094584e-001 2.20871687e-001 2.69410372e-001
      9.07867029e-002 9.37851518e-003 2.33948533e-003 0. 1.85397252e-001
      3.39065641e-002 2.90094584e-001 2.46353284e-001 9.61009413e-002
      1.48110718e-001 4.51618358e-002 1.35315463e-001 5.98069979e-003
      1.44471392e-001 2.57192440e-002 2.90094584e-001 1.26988709e-001
      1.43469527e-001 8.71769786e-002 1.93736404e-002 2.70995293e-002
      1.49517497e-002 2.90094584e-001 1.35626243e-002 2.90094584e-001
      2.07068235e-001 7.44277835e-002 1.22427471e-001 6.47931769e-002
      8.79633501e-002 3.05218739e-003 1.95690677e-001 5.37505448e-002
      2.62334794e-001 1.01515912e-001 1.28040090e-001 1.28072292e-001
      2.07935587e-001 2.62334794e-001 1.09625096e-002 2.45091453e-001
      6.13462459e-003 2.62334794e-001 9.41622257e-002 1.14970297e-001
      2.51093030e-001 1.11404151e-001 1.66569769e-001 0. 9.54231173e-002
      8.93455148e-002 2.62334794e-001 1.76533550e-001 2.55370528e-001
      2.18096599e-001 2.62334794e-001 2.62334794e-001 1.82708481e-003
      9.66168568e-002 0. 1.68531761e-001 8.05056095e-002 1.98073089e-001
      7.40370303e-002 1.13266505e-001 2.59852737e-001 8.38177651e-003
      2.86787182e-001 1.41435489e-002 2.86787182e-001 1.66998446e-001
      7.01900348e-002 4.55917381e-002 1.79290604e-002 4.23955843e-002 0.
      1.94575191e-001 1.02350950e-001 2.86787182e-001 1.90641448e-001
      8.50195736e-002 5.19745350e-002 1.52841032e-001 2.86787182e-001
      1.39696267e-003 1.71741724e-001 9.28601250e-003 2.86787182e-001
      1.36395976e-001 4.71246764e-002 2.16873199e-001 1.91242956e-002
      2.90897246e-002 0. 8.45495760e-002 7.81899318e-002 2.86787182e-001
      2.66060174e-001 2.82599062e-001 1.12156443e-001 6.70458004e-002
      1.17226444e-001 2.03637592e-002 1.32961065e-001 6.54500946e-002
      2.36914068e-001 9.31526572e-002 1.40408933e-001 1.70919642e-001
      1.47162229e-001 2.04917863e-001 7.04443827e-002 2.73084641e-001 0.
      1.16049200e-001 4.26879898e-002 8.95465612e-002 2.73084641e-001
      1.90747872e-001 2.73084641e-001 1.33548360e-002 6.04451820e-002
      4.98429202e-002 2.73084641e-001 1.46888718e-001 2.73084641e-001
      2.52083391e-001 2.73084641e-001 2.73084641e-001 5.94337247e-002
      2.38325134e-001 0. 6.12161215e-003 1.44062163e-002 1.67328611e-001
      3.12452167e-001 1.76131487e-001 3.12452167e-001 0. 6.77201301e-002
      1.16262652e-001 3.12452167e-001 2.88073272e-001 3.12452167e-001
      3.12452167e-001 3.12452167e-001 3.12452167e-001 0. 4.23974991e-002
      0. 2.38148257e-001 1.47252828e-001 3.12452167e-001 3.02216299e-002
      0. 0. 0. 0. 0. 0. 0. 3.02216299e-002 2.94402651e-002 0. 0. 0. 0.
      0. 0. 0. 2.94402651e-002 5.94094470e-002 1.72759011e-001
      3.60736072e-001 0. 7.35990107e-002 4.25040955e-003 3.92648250e-001
      1.75832555e-001 5.61756343e-002 3.92648250e-001 3.29293348e-002
      6.53141215e-002 0. 2.09464692e-002 2.55024489e-002 3.92648250e-001
      3.92648250e-001 3.92648250e-001 7.31665315e-003 0. 0. 0. 0. 0. 0.
      0. 7.31665315e-003 8.84716362e-002 0. 0. 0. 0. 0. 0. 0.
      8.84716362e-002 3.66342127e-001 2.43536443e-001 3.66342127e-001
      3.39800608e-003 1.62899159e-002 9.11336020e-003 3.00225109e-001
      1.47974223e-001 3.66342127e-001 3.10345441e-001 2.93039411e-001
      3.66342127e-001 2.03880295e-002 9.77394581e-002 0. 4.94964747e-003
      1.16481874e-002 2.82411993e-001 8.51568356e-002 0. 0. 0. 0. 0. 0.
      0. 8.51568356e-002 2.48717908e-002 0. 0. 0. 0. 0. 0. 0.
      2.48717908e-002</_>
    <_>
      1.25227511e-001 6.96198940e-002 1.57829314e-001 0. 1.14940386e-002
      0. 0. 0. 9.64579359e-002 3.06967348e-001 4.12207209e-002
      1.08004488e-001 0. 0. 0. 4.24439460e-002 1.41840223e-002
      3.06967348e-001 3.06967348e-001 3.06967348e-001 3.06967348e-001
      1.83501374e-002 1.98428184e-001 0. 0. 0. 2.08435759e-001
      3.06967348e-001 1.44548938e-001 2.88603872e-001 3.04333935e-003
      1.45325642e-002 0. 2.64222324e-001 9.85475555e-002 3.06967348e-001
      2.67284036e-001 3.05799185e-003 9.15064197e-003 0. 0. 0.
      2.35060796e-001 7.70820379e-002 2.67284036e-001 2.99282894e-002 0.
      0. 0. 0. 0. 1.95991233e-001 6.18189350e-002 2.99282894e-002
      3.32694024e-001 6.24556700e-003 1.22008547e-002 0. 1.08176291e-001
      2.21339706e-002 3.32694024e-001 3.29567045e-001 3.32694024e-001
      5.33040985e-002 0. 0. 0. 3.32694024e-001 3.61987576e-002
      3.32694024e-001 2.58972704e-001 5.33040985e-002 2.51211263e-002 0.
      0. 0. 7.96858296e-002 0. 2.97383033e-002 8.12320318e-003
      2.51211263e-002 1.50726676e-001 0. 0. 0. 4.00419563e-001 0. 0. 0.
      1.50726676e-001 4.78073731e-002 7.95471594e-002 1.23442091e-001
      5.63165918e-003 4.44355309e-001 1.31645305e-002 2.12956369e-001
      5.81880063e-002 4.44077365e-002 2.74945408e-001 2.07151994e-001
      3.47729772e-001 3.37899439e-002 4.44355309e-001 0. 0. 0.
      2.66446292e-001 1.62846506e-001 2.87395984e-001 2.90082037e-001
      1.73203256e-002 2.90082037e-001 2.30944730e-004 1.85260065e-002
      6.19106693e-003 9.60456505e-002 2.90082037e-001 9.50735062e-002
      1.77397400e-001 2.80973921e-003 4.64131571e-002 0. 2.39762038e-001
      8.95866901e-002 2.90082037e-001 8.12858269e-002 2.70153489e-002
      8.08401778e-002 3.46417073e-004 2.90082037e-001 1.55967323e-003
      2.90082037e-001 2.19519645e-001 9.84412804e-002 2.61893362e-001
      3.24700512e-002 2.99523063e-002 0. 6.74798936e-002 0.
      1.90631986e-001 1.07019074e-001 2.65273958e-001 1.36222824e-001
      5.10203931e-003 1.17028560e-002 2.51478003e-003 1.87008426e-001
      6.65101707e-002 2.98599243e-001 1.69337705e-001 1.39135957e-001
      3.00917085e-002 2.14304589e-002 6.41278476e-002 3.35303950e-003
      2.98599243e-001 9.51851159e-002 2.98599243e-001 1.27773166e-001
      2.65317634e-002 2.41225258e-001 7.28854835e-002 1.55785099e-001
      1.28308143e-002 2.41126791e-001 5.58037423e-002 1.04121141e-001
      4.20410745e-002 1.85879499e-001 2.84822375e-001 2.94589132e-001
      2.98599243e-001 2.47422624e-002 2.98599243e-001 7.54891261e-002
      1.05456859e-001 2.69571394e-002 1.76232338e-001 1.06608737e-002
      1.23073325e-001 2.87234426e-001 7.64745707e-003 3.18079025e-001
      1.24623878e-002 4.39444706e-002 1.14645064e-002 7.44668255e-003
      3.51834893e-002 2.10237846e-001 3.21113020e-001 4.35178541e-002
      3.21113020e-001 0. 0. 0. 2.90021263e-002 7.75554478e-002
      3.21113020e-001 3.21113020e-001 9.83415265e-003 2.73121536e-001
      9.09183081e-003 8.49925075e-003 1.86561781e-003 4.34277430e-002
      5.20779798e-003 2.78080344e-001 3.21113020e-001 3.26383859e-002
      2.65708089e-001 0. 0. 0. 2.73525296e-003 1.44229218e-001 0. 0. 0.
      1.76563859e-001 6.93180191e-004 3.02640855e-001 2.75748581e-001
      1.76197842e-001 3.02640855e-001 4.71590422e-002 1.58733670e-002 0.
      1.79459248e-002 0. 2.98833430e-001 1.80577695e-001 3.02640855e-001
      1.26618609e-001 0. 0. 0. 5.88661153e-003 0. 3.02640855e-001
      1.47143930e-001 1.39406055e-001 3.02640855e-001 1.76258720e-002
      2.64556077e-003 0. 7.36594211e-006 0. 2.97992349e-001
      1.31869122e-001 3.02640855e-001 2.92503387e-001 1.11037828e-001
      1.65854871e-001 6.06809324e-003 8.69407505e-002 5.56996744e-003
      1.35317035e-002 3.41801941e-002 2.92503387e-001 2.92503387e-001
      2.92503387e-001 2.92503387e-001 1.35098947e-002 1.41346261e-001
      7.42662279e-003 1.19276810e-003 0. 2.58474231e-001 2.92503387e-001
      6.38719425e-002 1.12728164e-001 0. 1.85423542e-003 0.
      3.15928161e-002 2.25406215e-002 2.92503387e-001 2.63774216e-001
      1.73017040e-001 2.92503387e-001 0. 2.47231335e-003 0. 0. 0.
      2.42805451e-001 1.85729697e-001 4.38967675e-001 4.38967675e-001
      6.46441756e-003 1.36597008e-001 2.13746261e-003 3.43291642e-004 0.
      1.31548733e-001 0. 2.59239972e-001 4.38967675e-001 0.
      1.38485581e-001 0. 0. 0. 0. 8.53622854e-002 2.16564998e-001
      4.38967675e-001 0. 7.11558620e-004 0. 0. 0. 8.53622854e-002 0.
      2.55158637e-002 7.63532147e-002 0. 0. 0. 0. 0. 0.</_></support_vectors>
  <decision_functions>
    <_>
      <sv_count>2</sv_count>
      <rho>0.</rho>
      <alpha>
        2.2380450487309127e+000 -2.2380450487309127e+000</alpha>
      <index>
        0 1</index></_>
    <_>
      <sv_count>2</sv_count>
      <rho>0.</rho>
      <alpha>
        1.7782153040500221e+000 -1.7782153040500221e+000</alpha>
      <index>
        0 2</index></_>
    <_>
      <sv_count>2</sv_count>
      <rho>0.</rho>
      <alpha>
        2.2127607267131264e+000 -2.2127607267131264e+000</alpha>
      <index>
        0 3</index></_>
    <_>
      <sv_count>2</sv_count>
      <rho>0.</rho>
      <alpha>
        1.9069727104204255e+000 -1.9069727104204255e+000</alpha>
      <index>
        0 4</index></_>
    <_>
      <sv_count>2</sv_count>
      <rho>0.</rho>
      <alpha>
        2.0363088726553227e+000 -2.0363088726553227e+000</alpha>
      <index>
        0 5</index></_>
    <_>
      <sv_count>2</sv_count>
      <rho>0.</rho>
      <alpha>
        2.8162586526615963e+000 -2.8162586526615963e+000</alpha>
      <index>
        0 6</index></_>
    <_>
      <sv_count>2</sv_count>
      <rho>0.</rho>
      <alpha>
        1.9785218107492837e+000 -1.9785218107492837e+000</alpha>
      <index>
        0 7</index></_>
    <_>
      <sv_count>2</sv_count>
      <rho>0.</rho>
      <alpha>
        2.2520215515835424e+000 -2.2520215515835424e+000</alpha>
      <index>
        0 8</index></_>
    <_>
      <sv_count>2</sv_count>
      <rho>0.</rho>
      <alpha>
        2.5916381855831268e+000 -2.5916381855831268e+000</alpha>
      <index>
        0 9</index></_>
    <_>
      <sv_count>2</sv_count>
      <rho>0.</rho>
      <alpha>
        1.5357006208628519e+000 -1.5357006208628519e+000</alpha>
      <index>
        1 2</index></_>
    <_>
      <sv_count>2</sv_count>
      <rho>0.</rho>
      <alpha>
        1.6189629583882565e+000 -1.6189629583882565e+000</alpha>
      <index>
        1 3</index></_>
    <_>
      <sv_count>2</sv_count>
      <rho>0.</rho>
      <alpha>
        1.7654395842720583e+000 -1.7654395842720583e+000</alpha>
      <index>
        1 4</index></_>
    <_>
      <sv_count>2</sv_count>
      <rho>0.</rho>
      <alpha>
        1.5407027449905766e+000 -1.5407027449905766e+000</alpha>
      <index>
        1 5</index></_>
    <_>
      <sv_count>2</sv_count>
      <rho>0.</rho>
      <alpha>
        1.7616627143431960e+000 -1.7616627143431960e+000</alpha>
      <index>
        1 6</index></_>
    <_>
      <sv_count>2</sv_count>
      <rho>0.</rho>
      <alpha>
        2.2732012038313183e+000 -2.2732012038313183e+000</alpha>
      <index>
        1 7</index></_>
    <_>
      <sv_count>2</sv_count>
      <rho>0.</rho>
      <alpha>
        1.8345378996632113e+000 -1.8345378996632113e+000</alpha>
      <index>
        1 8</index></_>
    <_>
      <sv_count>2</sv_count>
      <rho>0.</rho>
      <alpha>
        1.7670651192556115e+000 -1.7670651192556115e+000</alpha>
      <index>
        1 9</index></_>
    <_>
      <sv_count>2</sv_count>
      <rho>0.</rho>
      <alpha>
        2.4878225493736039e+000 -2.4878225493736039e+000</alpha>
      <index>
        2 3</index></_>
    <_>
      <sv_count>2</sv_count>
      <rho>0.</rho>
      <alpha>
        2.3290923306560525e+000 -2.3290923306560525e+000</alpha>
      <index>
        2 4</index></_>
    <_>
      <sv_count>2</sv_count>
      <rho>0.</rho>
      <alpha>
        1.7337487304745225e+000 -1.7337487304745225e+000</alpha>
      <index>
        2 5</index></_>
    <_>
      <sv_count>2</sv_count>
      <rho>0.</rho>
      <alpha>
        1.6640426700394746e+000 -1.6640426700394746e+000</alpha>
      <index>
        2 6</index></_>
    <_>
      <sv_count>2</sv_count>
      <rho>0.</rho>
      <alpha>
        2.2884585533396171e+000 -2.2884585533396171e+000</alpha>
      <index>
        2 7</index></_>
    <_>
      <sv_count>2</sv_count>
      <rho>0.</rho>
      <alpha>
        1.9322710682153046e+000 -1.9322710682153046e+000</alpha>
      <index>
        2 8</index></_>
    <_>
      <sv_count>2</sv_count>
      <rho>0.</rho>
      <alpha>
        2.1974410102676032e+000 -2.1974410102676032e+000</alpha>
      <index>
        2 9</index></_>
    <_>
      <sv_count>2</sv_count>
      <rho>0.</rho>
      <alpha>
        1.9999306226001767e+000 -1.9999306226001767e+000</alpha>
      <index>
        3 4</index></_>
    <_>
      <sv_count>2</sv_count>
      <rho>0.</rho>
      <alpha>
        2.5495684618019476e+000 -2.5495684618019476e+000</alpha>
      <index>
        3 5</index></_>
    <_>
      <sv_count>2</sv_count>
      <rho>0.</rho>
      <alpha>
        2.5689491438222447e+000 -2.5689491438222447e+000</alpha>
      <index>
        3 6</index></_>
    <_>
      <sv_count>2</sv_count>
      <rho>0.</rho>
      <alpha>
        1.8965001505130499e+000 -1.8965001505130499e+000</alpha>
      <index>
        3 7</index></_>
    <_>
      <sv_count>2</sv_count>
      <rho>0.</rho>
      <alpha>
        2.3761554167204859e+000 -2.3761554167204859e+000</alpha>
      <index>
        3 8</index></_>
    <_>
      <sv_count>2</sv_count>
      <rho>0.</rho>
      <alpha>
        2.3264794801799038e+000 -2.3264794801799038e+000</alpha>
      <index>
        3 9</index></_>
    <_>
      <sv_count>2</sv_count>
      <rho>0.</rho>
      <alpha>
        1.9550237298627109e+000 -1.9550237298627109e+000</alpha>
      <index>
        4 5</index></_>
    <_>
      <sv_count>2</sv_count>
      <rho>0.</rho>
      <alpha>
        2.1537896684641855e+000 -2.1537896684641855e+000</alpha>
      <index>
        4 6</index></_>
    <_>
      <sv_count>2</sv_count>
      <rho>0.</rho>
      <alpha>
        1.8930072578071864e+000 -1.8930072578071864e+000</alpha>
      <index>
        4 7</index></_>
    <_>
      <sv_count>2</sv_count>
      <rho>0.</rho>
      <alpha>
        2.0252058043483485e+000 -2.0252058043483485e+000</alpha>
      <index>
        4 8</index></_>
    <_>
      <sv_count>2</sv_count>
      <rho>0.</rho>
      <alpha>
        1.8995651674255432e+000 -1.8995651674255432e+000</alpha>
      <index>
        4 9</index></_>
    <_>
      <sv_count>2</sv_count>
      <rho>0.</rho>
      <alpha>
        3.8052340403140499e+000 -3.8052340403140499e+000</alpha>
      <index>
        5 6</index></_>
    <_>
      <sv_count>2</sv_count>
      <rho>0.</rho>
      <alpha>
        1.7827344650298136e+000 -1.7827344650298136e+000</alpha>
      <index>
        5 7</index></_>
    <_>
      <sv_count>2</sv_count>
      <rho>0.</rho>
      <alpha>
        3.0195203529285570e+000 -3.0195203529285570e+000</alpha>
      <index>
        5 8</index></_>
    <_>
      <sv_count>2</sv_count>
      <rho>0.</rho>
      <alpha>
        2.3464033932553345e+000 -2.3464033932553345e+000</alpha>
      <index>
        5 9</index></_>
    <_>
      <sv_count>2</sv_count>
      <rho>0.</rho>
      <alpha>
        1.9844088058973453e+000 -1.9844088058973453e+000</alpha>
      <index>
        6 7</index></_>
    <_>
      <sv_count>2</sv_count>
      <rho>0.</rho>
      <alpha>
        3.1472695719772239e+000 -3.1472695719772239e+000</alpha>
      <index>
        6 8</index></_>
    <_>
      <sv_count>2</sv_count>
      <rho>0.</rho>
      <alpha>
        2.0602280773408777e+000 -2.0602280773408777e+000</alpha>
      <index>
        6 9</index></_>
    <_>
      <sv_count>2</sv_count>
      <rho>0.</rho>
      <alpha>
        2.1890956595216542e+000 -2.1890956595216542e+000</alpha>
      <index>
        7 8</index></_>
    <_>
      <sv_count>2</sv_count>
      <rho>0.</rho>
      <alpha>
        1.8945057218372483e+000 -1.8945057218372483e+000</alpha>
      <index>
        7 9</index></_>
    <_>
      <sv_count>2</sv_count>
      <rho>0.</rho>
      <alpha>
        2.2723181925056859e+000 -2.2723181925056859e+000</alpha>
      <index>
        8 9</index></_></decision_functions></my_svm>
</opencv_storage>
