%YAML:1.0
my_svm: !!opencv-ml-svm
   svm_type: C_SVC
   kernel: { type:LINEAR }
   C: 1.0000000000000001e-001
   term_criteria: { epsilon:9.9999999747524271e-007, iterations:1000 }
   var_all: 102060
   var_count: 102060
   class_count: 2
   class_labels: !!opencv-matrix
      rows: 1
      cols: 2
      dt: i
      data: [ 1, 2 ]
   sv_total: 1
   support_vectors:
      - [ -1.17922609e-005, 2.88064010e-004, 3.83295555e-004,
          -3.71041024e-005, -1.11629597e-004, 2.31055252e-004,
          1.62411452e-004, 5.49286924e-005, -1.23490594e-004,
          -3.48270056e-004, 7.44136787e-006, 2.32508915e-004,
          8.53709789e-005, -2.87002476e-004, -2.04039985e-004,
          -1.42322460e-004, -4.67271057e-005, -3.98786855e-004,
          -4.63308854e-004, 3.10258067e-004, 7.73607811e-004,
          -1.73006061e-004, 1.90504143e-004, 1.73823821e-004,
          -8.40142166e-005, -4.53796005e-004, -5.73260069e-004,
          -1.77864495e-004, 5.36524982e-004, 1.23382732e-003,
          5.75883780e-004, 4.94229665e-004, -3.36755940e-004,
          -1.85123557e-004, -3.19875195e-004, -5.65540860e-004,
          -5.22622213e-005, 3.11840733e-004, 3.55682801e-004,
          -2.14933199e-004, -5.09268721e-004, -6.21401414e-004,
          -3.70559283e-004, -2.46984837e-005, -4.34974412e-004,
          -2.26002114e-004, 4.46979189e-004, 4.06647276e-004,
          -3.59556841e-004, -7.91005383e-004, -1.02965743e-003,
          -3.95951036e-004, -1.40566903e-004, -6.30234892e-004,
          1.54739784e-004, 6.09957206e-004, 9.56714794e-004,
          3.14281380e-004, 3.35645495e-006, -4.38675721e-004,
          -2.93206802e-004, -1.82366930e-005, 1.72544445e-004,
          5.60201624e-005, 5.31314639e-004, 6.22485764e-004,
          -2.52113041e-005, -2.38687891e-004, -8.36139778e-004,
          -2.40412017e-004, -5.10768150e-005, -1.23680744e-004,
          -1.83161581e-004, -6.59270372e-005, -1.74735454e-004,
          -3.55324417e-004, -4.18474636e-004, -6.28699781e-004,
          -3.79818666e-004, -3.01409804e-004, -1.47508035e-004,
          2.87482799e-005, -6.44226209e-004, -5.11578459e-004,
          -3.61133280e-004, -4.30849468e-004, -4.14424459e-004,
          -3.55387805e-004, 4.55069448e-006, 3.57607205e-004,
          6.67945424e-004, 2.86428811e-004, 3.96082323e-004,
          -3.09099094e-004, -8.22576621e-005, -6.31307950e-004,
          -3.51943396e-004, -1.69210762e-004, 3.29612260e-004,
          9.37494449e-004, 1.32470843e-004, -1.88618542e-005,
          -3.02165456e-004, -2.75696966e-005, -1.93260305e-004,
          -4.03512013e-006, 2.64095754e-004, 5.70607604e-004,
          4.36406590e-005, -6.01398468e-004, -4.61495772e-004,
          -2.26683551e-004, -6.09818147e-004, -2.77977000e-004,
          -2.04259253e-004, 3.15870624e-004, 4.34330665e-004,
          1.83880547e-004, -7.62125070e-004, -5.87715360e-004,
          -6.10584451e-004, -7.16292008e-004, -3.51070281e-004,
          -3.25084256e-004, -1.02929087e-004, 3.39107763e-004,
          8.30094155e-004, -5.88012008e-005, -2.70827218e-006,
          -7.36772972e-006, -4.64016135e-004, -1.60876923e-004,
          6.41911756e-005, 5.81693748e-005, 7.23341072e-004,
          1.01194123e-003, -1.99976363e-004, -5.17019304e-004,
          -1.85099474e-004, -2.35077780e-004, -3.19109764e-004,
          5.22054797e-005, -5.81188615e-005, 5.99097286e-004,
          -2.35077488e-004, -7.81828712e-004, -2.04910903e-004,
          -4.72865649e-004, -7.35055481e-004, -1.89546467e-004,
          -4.66746540e-004, -3.47394584e-004, -8.43331691e-006,
          -7.51243031e-004, -4.57384303e-004, -2.62032354e-005,
          -4.09642525e-004, -5.02780080e-004, -2.35993997e-004,
          -1.42291727e-004, -5.77289247e-005, -3.56963981e-004,
          6.58444245e-004, -1.46607214e-004, -3.83572224e-005,
          -2.41780072e-005, 7.11212051e-005, 1.64362194e-004,
          4.37289011e-004, 4.43637487e-004, 4.43336059e-004,
          -6.38581114e-005, -3.16376449e-004, -2.90087683e-005,
          -3.71505666e-005, 4.24764257e-005, -1.07073633e-004,
          2.06810146e-004, 3.46190296e-004, 1.14596332e-004,
          -5.54573548e-004, 6.76850032e-005, -2.88320938e-004,
          -6.37701363e-004, -4.37255338e-004, -3.59139172e-004,
          2.70098884e-004, -8.86393991e-006, -4.32562840e-004,
          -1.38340272e-006, -1.10830661e-006, -6.64794716e-005,
          -4.68393810e-005, -5.79667139e-005, -3.73565417e-005,
          -4.22490630e-005, 1.07540018e-005, 4.72486499e-006,
          -1.36855291e-004, 2.33129540e-005, -1.36497038e-004,
          -3.64263338e-004, 1.98940779e-005, -3.33129778e-004,
          3.54701711e-004, 4.53352375e-004, -2.85366230e-004,
          2.11264676e-004, 3.60734179e-004, 4.10658424e-004,
          9.23198677e-005, 2.96097161e-004, 1.07196793e-004,
          4.32548579e-004, 3.46670102e-004, 2.09002726e-004,
          -1.93705244e-004, -2.74081940e-005, 1.79505805e-004,
          -2.92925579e-005, -2.79268279e-004, -2.57766427e-004,
          -2.62161513e-004, 9.32922267e-005, -1.69053528e-004,
          -4.80223389e-004, -5.23931412e-005, -1.62197117e-004,
          -3.32064723e-004, -3.82243510e-004, -4.65823046e-004,
          3.08059971e-005, -4.01266530e-004, -8.59390362e-004,
          -4.40043150e-005, 2.74221878e-004, 4.43942117e-004,
          -1.17349584e-004, 5.12955303e-005, 3.61370221e-005,
          -4.55333684e-005, 1.86696314e-004, 8.75152109e-005,
          2.27758384e-004, 2.62504880e-004, 7.31665423e-005,
          -3.23729291e-005, 1.65299731e-004, -3.14677782e-005,
          -2.12273480e-005, -3.42898595e-004, -8.70185613e-005,
          -9.49363312e-005, -3.03007895e-004, -5.23202238e-004,
          -2.07010162e-004, -7.82392977e-004, -3.93580849e-004,
          -2.42962618e-004, -8.20905436e-004, -3.44439497e-004,
          3.26957699e-004, -2.27473029e-005, -1.56333655e-004,
          -2.85348971e-004, -5.89080912e-004, -4.91492101e-004,
          -5.31435187e-004, -7.23047531e-004, 1.76436894e-004,
          3.14224424e-004, 8.66110277e-005, 8.73916579e-005,
          -4.69975312e-005, -1.48296225e-004, -7.93536237e-005,
          -3.14594508e-004, -3.51964030e-004, 4.35433496e-004,
          7.05719402e-004, 2.35260872e-004, 2.10366416e-004,
          5.18892602e-006, 1.22051511e-004, -1.31276043e-004,
          -4.53550601e-004, -2.23422598e-004, 1.05991680e-003,
          4.29719425e-004, 3.31969408e-004, -1.34013026e-004,
          -3.25064320e-004, -5.75497164e-004, -2.56127882e-004,
          -4.08447289e-004, -5.17180597e-004, 1.00151279e-004,
          1.54424793e-004, -7.98958063e-005, -4.92628897e-004,
          -4.25023143e-004, -5.03037532e-004, -4.48774343e-004,
          -6.28339360e-004, -7.84559699e-004, -1.65243458e-004,
          7.23802485e-004, -2.11506813e-005, 5.16133550e-005,
          -2.50942860e-004, -3.46298912e-004, 1.47650033e-004,
          -1.27515363e-004, 1.82296440e-004, 9.00852261e-004,
          5.66223287e-004, 6.45144755e-005, -1.35147478e-004,
          -3.07914539e-004, -2.74413032e-004, -4.32831730e-004,
          -1.87381287e-004, -8.98835278e-005, 8.49430857e-004,
          -3.69851259e-005, -2.50905199e-004, -4.99966787e-004,
          -6.44502870e-004, -4.71448468e-004, -4.40527219e-004,
          -2.94327619e-004, -1.93984059e-004, -1.85048455e-004,
          -5.12552564e-004, -1.09418834e-004, -3.51692695e-004,
          -8.19997047e-004, -5.91820048e-004, -2.35231128e-004,
          4.42625897e-004, 4.64342302e-004, -9.03333930e-005,
          4.21234901e-004, -1.10204404e-004, -4.57639515e-004,
          -5.92654862e-004, -7.23500534e-006, -3.71520699e-004,
          3.63553147e-004, 2.74694146e-004, 8.45099683e-004,
          8.89845069e-006, 1.07613050e-004, -1.53695975e-004,
          -6.32863550e-004, -1.35428083e-004, 7.92084029e-005,
          7.07009807e-004, 5.36445470e-004, 1.83415090e-004,
          -6.63574145e-004, -2.06946512e-004, -4.89970553e-004,
          -8.31984973e-004, -5.31341240e-004, -1.89320432e-004,
          5.64176706e-004, 5.06393088e-004, -2.28899211e-004,
          -3.79859266e-004, 4.22896774e-005, -1.48200241e-004,
          -2.41988164e-004, -3.07446491e-004, -1.28901738e-004,
          4.99005764e-005, -1.25873867e-005, -3.32574942e-004,
          8.90768133e-005, -2.18775440e-005, -3.81869206e-004,
          -5.29844314e-004, -7.66092126e-005, 4.09580563e-004,
          1.03431777e-003, 7.97236338e-004, 3.87539039e-005,
          -4.04105231e-004, -3.32668424e-004, -3.27683432e-004,
          -3.83613864e-004, 4.50146967e-004, 3.28220078e-004,
          1.02309266e-003, 3.42162093e-004, -1.23546197e-004,
          -2.21550708e-005, 1.03261671e-004, 1.09662702e-004,
          2.52513972e-004, -9.18547739e-005, 1.62538141e-004,
          3.04972462e-004, 2.08647733e-004, -3.30577823e-005,
          3.09529350e-005, -3.78455588e-005, 2.49686302e-004,
          1.57424685e-004, -7.21834804e-005, 1.85093686e-005,
          3.58066376e-004, 1.08662185e-004, 6.34816461e-005,
          -5.49319841e-004, -3.76117037e-004, -1.02359772e-005,
          2.62015528e-004, 2.05441349e-004, 2.58637330e-004,
          9.43050894e-004, 5.73598023e-004, -1.15364965e-004,
          5.20618596e-005, -4.43465367e-004, 3.25251545e-004,
          2.72686702e-005, 7.30697211e-005, -2.52948637e-004,
          5.45790710e-004, -2.10481943e-004, 7.61920019e-005,
          4.22210760e-005, 2.19236113e-004, 3.86198371e-004,
          -2.21258488e-005, -1.19707569e-004, 2.03893593e-004,
          1.83205586e-004, -6.70223308e-005, -4.88689875e-005,
          -1.89761020e-004, 9.34071213e-005, 2.65365583e-004,
          1.96688547e-004, -6.03006119e-005, 1.19955810e-004,
          2.39771307e-005, 8.63427194e-005, -1.47855390e-004,
          -1.66224359e-004, 7.81323470e-005, 6.73858856e-004,
          -2.92131386e-004, 1.45279453e-004, 1.45895057e-004,
          1.22430472e-004, -5.15505963e-004, -2.37317494e-004,
          -2.83622852e-004, 4.82548756e-004, 1.05471699e-003,
          4.19826596e-004, 5.01877104e-004, 5.88905023e-005,
          -7.50712497e-005, -3.08961113e-004, -7.66687503e-004,
          -2.64431088e-004, 5.25005926e-005, 7.91865459e-005,
          -1.60802592e-004, -5.02308889e-004, -4.30570624e-004,
          -2.19952461e-004, 3.59377509e-006, -4.00921708e-004,
          -1.92299820e-004, 6.36438141e-004, 5.96611702e-004,
          -3.07889859e-004, -6.82702695e-004, -1.01386220e-003,
          -4.25216625e-004, -2.07396661e-004, -6.69108587e-004,
          -1.59253450e-005, 3.74157418e-004, 1.06463907e-003,
          2.95922160e-004, 1.47646613e-004, -4.52999520e-004,
          -2.31295679e-004, -1.50073654e-004, -1.44609468e-004,
          7.54025241e-005, 7.05861254e-004, 7.87545869e-004,
          2.49528297e-004, -2.58398650e-004, -6.68313412e-004,
          -3.50649498e-004, 3.74024712e-005, 9.32315743e-006,
          -1.28710875e-004, 2.60140660e-004, 1.99633665e-004,
          -2.64505827e-004, -5.29253390e-004, -6.61869533e-004,
          -2.87974981e-004, -2.10795348e-004, -4.87655489e-004,
          -8.97472273e-005, -4.40371543e-004, -4.63437580e-004,
          -4.61822026e-004, -4.76366462e-004, -6.19789294e-004,
          -5.74279053e-004, -1.29651220e-004, 2.29787314e-004,
          3.70266207e-004, 5.12498373e-004, 6.63640909e-004,
          -1.04893610e-004, -1.06119005e-004, -6.02235785e-004,
          -1.85499986e-004, 6.75123374e-006, 7.80090922e-005,
          9.09840863e-004, 2.45876989e-004, 2.18216432e-004,
          -4.09726897e-004, 4.44030484e-005, -4.51266125e-004,
          -3.08512797e-004, 7.63297867e-005, 5.60834364e-004,
          -1.97096510e-004, 3.03333247e-004, 5.41500864e-004,
          -7.81244671e-005, -9.65289073e-005, -1.93408210e-004,
          -2.98572413e-004, -4.93623025e-004, -6.14506367e-004,
          -4.82285104e-004, 5.85948233e-004, 1.12228724e-003,
          2.85124202e-004, -7.96651293e-005, -3.86823027e-004,
          -5.62939851e-004, -4.88161691e-004, -7.35779118e-004,
          5.83515975e-005, 3.75130883e-004, 4.35670750e-004,
          1.48117586e-004, -4.81607538e-004, 6.24582462e-005,
          -2.35978896e-005, 2.15438209e-004, 1.68659928e-004,
          -1.04497827e-004, 7.39415118e-004, 1.29706494e-003,
          6.36569690e-004, -1.29546112e-004, 3.77872144e-004,
          -3.95990704e-004, -1.17193333e-004, -2.55645253e-004,
          -6.81504607e-004, 3.17469821e-004, 8.57584237e-004,
          9.66417138e-005, -2.01519200e-004, -3.25188943e-004,
          -6.53320749e-004, -3.97169671e-004, -6.99073367e-004,
          -5.25866926e-004, 3.86666885e-004, 5.79314365e-004,
          -4.80427901e-004, -5.08059224e-004, -4.79850511e-004,
          -4.84443590e-004, -4.07482352e-004, -4.97169851e-004,
          -5.88277064e-004, 4.16820549e-004, 8.67177441e-004,
          5.06549724e-004, 7.84061995e-005, 3.95487266e-004,
          -3.13461496e-004, -1.77213602e-004, -6.57949771e-004,
          -3.18907405e-004, 5.95286314e-004, 4.01962170e-004,
          -1.22577994e-005, 1.68626124e-004, 3.70084017e-004,
          2.99208914e-004, 7.56534355e-005, -2.28317658e-004,
          2.77494983e-004, 1.01214988e-004, 1.54290567e-004,
          -5.64497197e-004, -6.68786641e-004, -5.29571727e-004,
          -4.76442918e-004, -7.79591268e-004, -2.15578737e-004,
          8.73514626e-004, -1.44282079e-004, 6.50976435e-005,
          -4.89947386e-004, -3.69560817e-004, -3.73218063e-004,
          -2.89638061e-004, -6.16509118e-004, 3.74829979e-004,
          1.59557429e-004, 3.97643860e-004, 1.54962938e-004,
          -7.07754283e-004, -5.09059115e-004, -2.44384544e-004,
          6.70988156e-005, -5.32359525e-004, 1.94761324e-005,
          7.74852233e-004, 2.22786039e-004, 2.28554083e-004,
          -7.21109333e-004, -1.91938001e-004, -9.20081948e-005,
          1.28895699e-004, -5.62424422e-004, 4.63190983e-004,
          4.49126470e-004, -3.98388482e-004, -2.98809668e-004,
          -5.06697455e-004, -5.80292544e-004, -3.45691602e-004,
          1.14643284e-004, -3.81083286e-004, 1.53496352e-004,
          3.24768946e-004, -2.79611471e-004, -5.20855712e-004,
          -6.72697905e-004, -3.40423780e-004, -5.10129903e-004,
          1.49757427e-004, -3.77169956e-004, -1.35673516e-004,
          6.12647680e-004, 1.97331887e-004, 5.38363471e-004,
          -6.81169215e-004, -3.52277311e-005, -1.53767920e-004,
          6.49227179e-004, -3.05694237e-004, 2.89137184e-004,
          5.55328385e-004, 2.88455019e-004, 5.35952160e-004,
          -7.21064222e-004, 4.13136935e-004, -9.15501150e-005,
          5.20196103e-004, -4.99438611e-005, 4.63342963e-004,
          2.92413693e-004, -1.81761206e-004, -4.36557195e-004,
          -3.20157909e-004, 2.68385265e-005, -4.56901937e-004,
          3.85430147e-004, 1.10404042e-004, 1.86848294e-004,
          -1.24454324e-004, -2.54311191e-004, -2.89234216e-004,
          6.49510596e-008, -9.49272071e-005, -5.72527817e-004,
          -1.96569876e-004, -1.19198077e-004, -3.41938343e-004,
          2.13587206e-004, -8.47014016e-005, 2.70528835e-004,
          -2.72578938e-004, 8.91874020e-004, 1.77803260e-004,
          7.31950684e-004, 2.93607212e-004, 2.66785191e-005,
          -2.54661310e-004, 1.29171885e-005, -1.46830804e-004,
          -5.62000787e-005, 3.94383998e-004, -3.24713255e-005,
          2.27158278e-004, -1.93635671e-004, -6.18135848e-004,
          -3.21444910e-004, -1.89362734e-004, -2.49032018e-004,
          -4.33743000e-004, -2.47342075e-004, -3.70871741e-004,
          2.00662020e-004, 9.13067051e-005, -6.42179570e-004,
          -2.29438941e-004, 4.89893137e-005, 3.45027511e-004,
          7.46879377e-005, -3.53373063e-004, 9.49237292e-005,
          3.76714132e-004, 3.43903630e-005, -2.32873441e-004,
          -2.49570789e-004, 2.70172604e-004, -2.62712274e-004,
          4.81709458e-006, 1.62690252e-004, 4.26313374e-004,
          4.26599843e-004, -2.46526964e-004, -4.32946254e-004,
          2.24095944e-004, 2.44438852e-004, 4.28406143e-004,
          4.86362580e-004, 5.84478112e-005, 5.14502986e-004,
          5.07866032e-004, 2.40435736e-004, 2.16266097e-004,
          -2.43456656e-004, 5.08579287e-005, 5.21223483e-005,
          -1.66579281e-004, -2.48988072e-004, 1.12245769e-004,
          -3.92087168e-005, 3.08712661e-005, -6.48782734e-005,
          -3.99409124e-004, -1.80063682e-006, -1.09767636e-004,
          -4.45051555e-004, 2.69756769e-004, -5.40739893e-005,
          -2.59132328e-004, -2.26326898e-004, -2.27263896e-004,
          -7.99785266e-005, -3.89222696e-005, 3.57419340e-004,
          3.24894208e-004, 1.09539491e-004, 2.19160414e-004,
          -1.89838713e-004, 2.66104704e-004, -2.49825844e-005,
          -5.84112422e-004, 1.03573411e-005, 6.83116319e-004,
          4.34492802e-004, 5.80311113e-004, 9.84883445e-005,
          -2.92958048e-005, 1.62106415e-004, -2.71894824e-004,
          -1.66253405e-004, -3.24035354e-004, -1.49059444e-004,
          -6.55103475e-004, -2.49345932e-004, -3.09922762e-004,
          -5.15064399e-004, -3.08555813e-004, 1.87425376e-005,
          -3.98944430e-005, -1.42784877e-004, 4.00863617e-004,
          -3.99601908e-004, -1.59761214e-004, -6.03365072e-004,
          -5.52669517e-004, -3.55431956e-004, 4.34117916e-004,
          -2.77846644e-004, -1.35883442e-004, 4.88697668e-004,
          -1.83041397e-004, 7.05632323e-004, -3.63890867e-004,
          -1.06213898e-004, -2.21791808e-004, 2.37933964e-005,
          3.82496830e-004, 7.37946630e-006, 6.40181242e-004,
          1.39753072e-004, 6.99292694e-004, -6.17717335e-004,
          7.29091757e-004, 2.41051661e-004, 6.10250107e-004,
          1.00268793e-004, -3.15629586e-004, 8.59719221e-005,
          -2.99611071e-004, -3.77957855e-004, -3.59675323e-004,
          -2.11010338e-004, -2.26128366e-004, 4.25567239e-004,
          7.35805515e-005, -7.53807719e-004, -3.99817101e-004,
          -5.50944766e-004, -6.43902458e-004, -6.69240311e-004,
          -2.77790212e-004, -3.57558340e-004, 5.78084087e-004,
          5.85572270e-004, -2.32452381e-004, 6.29303744e-004,
          -1.16393654e-004, 1.13737231e-004, -4.77165915e-004,
          6.65051804e-004, 4.75526409e-004, 8.12054728e-004,
          2.40709196e-004, -7.66118697e-004, 4.32216939e-006,
          -3.57055367e-004, -3.95079813e-004, -1.09793246e-003,
          1.99123024e-004, -3.21059706e-005, 5.87836723e-004,
          -2.28253011e-005, -7.34792906e-004, -4.30925080e-004,
          -4.70336032e-004, -3.88886663e-004, -5.05358796e-004,
          2.86288850e-004, 1.90937324e-004, 5.83467423e-004,
          -5.72785444e-004, -4.22167563e-004, -4.07544925e-004,
          -4.10743814e-004, -3.37484787e-004, -3.83359496e-004,
          6.18645514e-004, 3.55823518e-004, -5.51036152e-004,
          7.38721355e-005, -4.62180935e-004, 6.51192822e-005,
          -8.18294429e-005, -7.74488290e-005, -6.65637315e-004,
          2.97750375e-004, 5.78326930e-004, 4.65180841e-004,
          -1.79734780e-004, -2.01365019e-005, 1.54766356e-004,
          1.78308008e-004, 4.93737170e-005, -1.65951598e-004,
          2.81313871e-004, 5.82959445e-004, -1.94944616e-004,
          -6.32494455e-004, -3.19966115e-004, -6.04049594e-004,
          -2.50026991e-004, -1.88246675e-004, 1.40327989e-004,
          8.79314321e-004, 5.77114290e-004, -5.79378102e-004,
          -7.41576659e-004, -5.03647781e-004, -5.77002647e-004,
          -4.17704461e-004, -2.44068957e-004, 1.82965465e-004,
          9.47856344e-004, 4.47175669e-004, -5.46898693e-004,
          -6.22418360e-004, -5.95460660e-005, -7.47482943e-007,
          5.84651250e-004, 1.87651996e-004, 5.98650426e-004,
          9.09959897e-004, 6.72302383e-004, -5.54880768e-004,
          -5.73467463e-004, -2.24679301e-004, -5.30071906e-004,
          1.06111482e-004, -2.72277306e-004, 3.53360840e-004,
          1.09626609e-003, 5.99726744e-004, -4.47261700e-004,
          -4.87810408e-004, -6.48842251e-004, -3.60107049e-004,
          -2.75595434e-004, -2.30664111e-004, -2.85734732e-005,
          6.81435456e-004, 3.32752970e-004, -1.82926073e-004,
          -5.65166301e-005, -3.38563346e-004, -1.07872242e-004,
          -5.30578545e-005, -1.83077442e-004, -1.11725421e-004,
          1.06364765e-004, -1.26246683e-004, 5.09588688e-007,
          2.08357465e-004, 2.14102722e-004, -2.09514201e-005,
          7.77196401e-005, -5.66790579e-004, 1.65037491e-004,
          6.98639778e-004, 3.94877628e-004, 7.13465706e-005,
          5.18680376e-004, 3.64302279e-004, 2.30796082e-004,
          3.97392636e-004, -7.68061436e-005, 4.22485726e-004,
          2.22083763e-004, 4.13386791e-004, 5.47852309e-004,
          7.30661122e-005, 1.13335511e-004, 3.37284029e-004,
          -1.10654910e-004, -1.54563008e-004, -4.17560368e-005,
          -1.82937845e-004, -3.97428434e-004, -2.91715725e-004,
          -3.63242434e-004, 4.70078259e-004, 8.37567670e-004,
          1.34161441e-004, -4.90343555e-005, -3.99940705e-004,
          -4.53070563e-004, -6.28205191e-004, -6.75115327e-004,
          5.19424560e-004, 3.69900314e-004, 2.39622910e-004,
          2.66228832e-004, -1.97415633e-004, 2.73203565e-004,
          1.70374493e-004, 3.45962413e-004, 4.09280794e-004,
          6.05737951e-005, 5.73629746e-004, 1.05339871e-003,
          3.83835984e-004, -4.28223284e-004, 9.30829046e-005,
          -2.06970886e-004, 9.51011680e-005, 1.24116152e-004,
          -6.62608363e-004, 3.58579389e-004, 9.73573362e-004,
          1.68252533e-004, -2.66787043e-004, -3.82831175e-004,
          -6.40009996e-004, -4.13910311e-004, -8.18103668e-004,
          -5.43057104e-004, 5.42917522e-004, 6.27431087e-004,
          -1.19556462e-004, -2.74685473e-004, -3.35238234e-004,
          -5.73720434e-004, -3.64999141e-004, -6.21345884e-004,
          -5.83372952e-004, 5.13240055e-004, 1.06546236e-003,
          4.55391390e-004, -1.63020537e-004, 2.87496863e-004,
          -4.57717571e-004, -2.38433597e-004, -7.21744495e-004,
          -4.73716325e-004, 6.96477655e-004, 6.12171774e-004,
          4.19514283e-004, 3.47434281e-004, 5.07809455e-004,
          2.17988127e-004, 1.19446537e-004, -5.09641890e-004,
          -2.05383360e-004, 2.44272815e-004, 4.05060448e-004,
          -4.49240819e-004, -4.42698627e-004, -4.40886972e-004,
          -3.73845571e-004, -5.33787243e-004, -4.56926005e-004,
          8.22093221e-004, 6.56949924e-005, 9.55702490e-005,
          -5.51167817e-004, -3.89794179e-004, -4.67842590e-004,
          -4.49769665e-004, -8.17546039e-004, 2.38046574e-004,
          -3.95839015e-005, 4.80397954e-004, 3.61884100e-004,
          -3.87280423e-004, -2.85797054e-004, -8.38342748e-005,
          1.56203343e-004, -1.86199410e-004, -4.85491837e-005,
          6.92306319e-004, 3.63779574e-004, 2.60312896e-004,
          -7.85950688e-004, -1.98681286e-004, -7.27940496e-005,
          6.20870014e-006, -5.77647530e-004, 3.17510712e-004,
          1.42545105e-004, 1.96507623e-004, 1.36308314e-004,
          2.42207432e-004, -3.39228311e-004, 2.46493175e-004,
          -1.70917610e-005, 2.89276126e-004, 4.14435199e-004,
          -1.06236235e-004, 1.32668079e-004, 6.87555119e-004,
          3.35497840e-004, 8.48880882e-005, 4.74450411e-004,
          4.56835842e-005, -1.49678399e-005, 4.33675450e-005,
          6.23803135e-005, -1.82671007e-004, -3.84229003e-004,
          -3.16474034e-004, -6.99630065e-004, -8.58803469e-005,
          -9.08185611e-005, 1.38814008e-004, 2.39999703e-004,
          5.54636717e-005, -2.61032837e-004, -3.71825328e-004,
          -3.33941862e-004, -4.43081197e-004, -6.00752282e-005,
          2.11353414e-004, 2.00180424e-004, 1.72778615e-004,
          -5.92376979e-004, -6.58418285e-005, 4.84667456e-004,
          1.98158465e-004, 3.51776143e-005, 5.18419140e-004,
          2.81768676e-004, 4.74676744e-005, -3.41751118e-004,
          -1.78428047e-004, 3.29700764e-004, 4.78639093e-004,
          -7.89557816e-005, -3.78517405e-004, 2.50608224e-004,
          4.93873376e-004, 7.01512850e-004, 6.06974500e-005,
          -4.86116653e-004, -6.24936947e-005, -3.31151532e-005,
          -2.85432703e-004, -4.97521600e-004, -1.80149596e-004,
          1.41336626e-004, 5.30781690e-005, -3.53828247e-004,
          -2.66109011e-004, 1.27920081e-004, 1.39531752e-004,
          -2.02797339e-004, -5.28783072e-004, -2.92733836e-004,
          -4.02345031e-005, 2.16222281e-004, -4.15997347e-005,
          -4.04420098e-005, 1.81987882e-004, 8.88740396e-005,
          -5.53461723e-004, -8.58386164e-004, -3.78908968e-004,
          1.18523654e-004, 1.44760110e-004, -4.55263180e-005,
          6.06902817e-004, 3.84783285e-004, 2.68699601e-004,
          -6.87601627e-004, -6.02709129e-004, -3.71582573e-004,
          1.87804049e-004, -8.07555334e-005, 4.23788530e-004,
          1.75622099e-005, 2.51268284e-005, 3.08673945e-004,
          -3.49946728e-004, -7.28763349e-004, -5.55257371e-004,
          -2.43655901e-004, 1.75580917e-005, 2.21758411e-004,
          3.49333859e-004, -1.28240608e-005, 1.05073479e-004,
          -3.99145036e-004, -4.42297256e-004, -3.57601617e-004,
          4.17886331e-004, 2.48115597e-004, 4.22776502e-004,
          6.93117676e-004, 3.15613550e-004, 4.54946741e-004,
          -7.37297290e-004, -4.53367829e-004, -3.71042697e-004,
          2.01874675e-004, -1.11092399e-004, 6.12371834e-004,
          7.61463423e-004, 1.83189797e-004, 7.87286554e-004,
          -5.87415241e-004, 2.53878563e-004, -2.07559744e-004,
          9.14633565e-005, -3.78298340e-004, 6.26619672e-004,
          2.84186477e-004, -2.85721500e-004, -1.88462989e-004,
          -8.17095221e-004, -4.29181731e-004, -4.43956145e-004,
          2.71682075e-004, -2.64285900e-005, 4.99948219e-004,
          4.71854757e-004, 7.92231222e-005, 1.25311402e-004,
          -7.28020153e-004, -2.21656577e-004, -6.95954717e-004,
          -1.48980529e-004, -5.78409119e-004, 5.61078719e-004,
          1.21881596e-004, 3.60251652e-005, 6.91158930e-004,
          -3.66206281e-004, 4.32136992e-004, 3.06773800e-005,
          6.63963787e-004, -1.63260178e-004, 9.89258569e-006,
          -6.01470179e-004, -1.78608738e-004, 6.74185794e-005,
          -9.69735338e-005, 4.37627226e-004, -5.87980539e-005,
          2.98439612e-004, -4.80035320e-004, -8.04782321e-004,
          3.78716330e-004, 3.13246972e-004, 5.40116860e-004,
          -5.09224017e-004, 9.30005190e-005, -2.41476839e-004,
          8.38025153e-005, -3.41114704e-004, 3.24963941e-004,
          -4.84919641e-004, -2.73871381e-004, 3.32433352e-004,
          -3.81057325e-004, 1.59073359e-004, -1.20644756e-004,
          7.68341306e-006, -1.57692411e-004, -3.51622904e-004,
          -8.38839915e-004, -4.86946701e-005, -1.62192999e-004,
          3.02920798e-005, -1.79950977e-004, 2.54580285e-004,
          4.39773576e-004, -3.52545758e-004, -8.80574458e-004,
          2.42302238e-004, 2.66948482e-004, 2.96309852e-004,
          5.54064463e-004, 1.33782369e-005, 5.61916095e-004,
          3.61420971e-004, 2.87099916e-004, 2.29269499e-004,
          -1.46614009e-004, -1.64786557e-004, 1.09378845e-004,
          -2.94271158e-004, -5.97665610e-004, 5.08786979e-005,
          2.40329100e-004, 4.45484824e-004, -1.94201944e-004,
          1.04786677e-003, 6.27751870e-004, 3.90960049e-004,
          2.22235321e-004, -5.33499115e-004, 1.99765593e-004,
          3.77247226e-004, 6.48732064e-004, 1.04315288e-003,
          2.53978651e-004, 5.96055470e-005, 4.49119310e-004,
          4.35822207e-004, 1.25888510e-005, 2.62184709e-004,
          2.84597547e-007, 2.29854471e-004, 2.63266615e-004,
          -1.09467469e-003, -4.42158198e-004, 3.54135467e-004,
          3.83214676e-004, 6.11002906e-004, 6.36959157e-005,
          3.72012990e-004, -6.48016430e-005, -8.44100025e-004,
          4.94005159e-004, 5.53108461e-004, 3.38749611e-004,
          2.01251241e-004, -6.71800401e-004, -2.13814801e-005,
          1.34688555e-004, 1.94392676e-004, 4.51789849e-004,
          -3.47747147e-004, -4.72195206e-005, 1.29627966e-004,
          2.98193947e-004, 2.33297571e-004, -2.13200969e-004,
          6.50261878e-004, -1.79871990e-004, -4.07452084e-004,
          -2.02377923e-004, -4.52829612e-004, 1.71291002e-004,
          -2.07511723e-004, 5.97197737e-004, -4.02369420e-004,
          1.77684298e-004, -1.97230547e-004, -2.18711048e-005,
          6.48243295e-004, -3.81722231e-004, 2.65691400e-004,
          -1.13131369e-004, 1.73616048e-004, -6.27497153e-004,
          8.34798499e-004, 2.35395739e-004, 7.48959661e-004,
          -1.70717438e-004, -3.51200550e-004, -3.91444300e-005,
          -3.38940066e-004, 3.26183334e-004, -6.20910258e-004,
          9.80855766e-005, -1.40397155e-004, -1.40164426e-004,
          7.30484899e-004, -6.10776478e-004, -8.96342317e-005,
          -6.81360078e-004, -3.50347691e-004, -6.74507057e-004,
          3.27897753e-004, 2.30114005e-004, 6.16417034e-004,
          7.11649889e-004, -2.20414993e-004, 1.50354943e-004,
          -3.16110789e-004, -2.11257066e-004, -5.24233677e-004,
          6.55557262e-004, 2.92598386e-004, 7.31195556e-004,
          4.09433269e-004, -1.31698791e-004, 1.39409443e-004,
          -4.21302975e-004, -6.90891058e-004, -8.14947824e-004,
          1.37114854e-004, 3.02100438e-004, 5.92337106e-004,
          5.93367149e-004, -1.76690781e-004, 1.81210475e-004,
          -4.83317359e-004, -3.62782361e-004, -6.79303077e-004,
          -1.67612365e-004, -1.17296913e-004, 4.64176206e-004,
          2.83089001e-004, 1.59466043e-004, 3.40542465e-004,
          -4.87427373e-004, -4.54762601e-004, -6.01973501e-004,
          2.75262882e-005, -9.14373013e-005, 2.54056067e-004,
          8.17386244e-005, 2.03040006e-004, 2.40138776e-004,
          -3.28480586e-004, -4.86454490e-004, -5.21021779e-004,
          1.46341190e-004, 2.97703460e-004, 1.81981828e-004,
          4.79742157e-005, 4.74739441e-004, 3.57482902e-004,
          1.24552578e-004, -5.29359910e-004, -2.43223316e-004,
          3.08228191e-004, 1.61508840e-004, -3.11256415e-004,
          4.51707834e-004, 1.17759322e-004, -2.72431716e-005,
          -3.85162246e-004, -2.50467128e-004, -2.05456017e-004,
          4.10008797e-004, 2.11853752e-004, 1.96342226e-004,
          -1.17707590e-004, 1.64314726e-004, -9.11606458e-006,
          -3.31086543e-004, -7.45002530e-004, -3.47296358e-004,
          1.53355038e-004, 2.34653435e-005, -3.92852235e-004,
          -1.48385967e-004, 3.06011818e-004, 7.04915263e-004,
          6.66426087e-004, 9.77622258e-005, 3.57424840e-004,
          6.80872297e-004, 1.99544753e-004, -4.18192532e-004,
          -1.68479790e-004, -9.18878504e-005, -6.37149933e-005,
          3.44311266e-004, 2.14148440e-005, 1.46398030e-004,
          6.05109613e-004, 5.16920554e-005, -2.71065714e-004,
          -2.79492699e-004, 2.59408203e-004, 3.93116585e-004,
          -8.42985173e-005, -3.86769272e-004, -1.01705904e-004,
          1.60690121e-004, 1.74462257e-004, -4.18088981e-004,
          -1.23371414e-004, 7.31710825e-005, 1.48456442e-004,
          -1.71316453e-004, -3.66696098e-004, -4.22864367e-004,
          -5.03350515e-004, -3.88194283e-004, -3.07328097e-004,
          1.80137300e-004, 7.59575560e-005, -6.03710869e-005,
          2.17107736e-004, -4.11697751e-004, 7.91235725e-005,
          1.17827578e-004, 6.07710936e-005, -1.21601133e-005,
          5.52347628e-004, 2.15346910e-004, 1.06143329e-004,
          3.43280321e-004, -3.22885935e-005, 3.68411391e-004,
          8.49065545e-005, 2.04580327e-004, 5.26498014e-004,
          2.63569120e-004, 1.38787422e-004, -2.10027094e-004,
          -2.52446072e-004, -6.50349073e-004, -4.58435912e-004,
          -4.27165680e-004, -2.57625303e-004, 1.50897016e-004,
          3.41627921e-004, -1.08900909e-004, -1.52901557e-004,
          -1.49779953e-005, -3.24321591e-004, -8.27518452e-005,
          -2.52874685e-004, -3.11254931e-004, 3.00894724e-004,
          4.39435098e-004, 1.90537539e-004, 5.60926383e-005,
          3.02097469e-004, -1.90432416e-004, 2.70787801e-004,
          8.50737051e-005, 2.81870802e-004, 5.51584468e-004,
          1.64366566e-006, 8.84944893e-005, 3.62889958e-004,
          1.54907684e-004, -1.73711363e-004, 3.00028158e-004,
          -5.25827236e-005, 1.25982970e-005, 1.60538882e-004,
          2.97597871e-004, -2.41313348e-004, -2.92153214e-004,
          -1.26437852e-004, -4.53136774e-004, -1.06277275e-005,
          -4.53669381e-005, 7.21391989e-005, 4.23517369e-004,
          4.79880036e-005, -3.07625829e-004, -4.57233371e-004,
          -4.33757872e-004, -6.03469380e-004, -2.07295278e-004,
          -7.76544475e-005, 1.52559893e-004, 2.00551483e-004,
          -4.95679677e-004, -1.81379492e-005, 5.60450542e-004,
          1.64970625e-004, 8.43338348e-005, 3.83936625e-004,
          7.69860926e-005, -7.84028089e-005, -2.51697405e-004,
          -3.50984803e-004, 2.46487674e-004, 5.35802508e-004,
          1.85978060e-004, -7.24843849e-005, 5.79157786e-004,
          6.07818016e-004, 5.73049183e-004, 6.23339429e-006,
          -3.40999337e-004, -2.38534005e-004, -3.59922822e-004,
          -4.39808849e-004, -3.13530909e-004, -1.56479073e-004,
          7.03838596e-005, 3.11309814e-005, -1.68197425e-004,
          -3.43975524e-004, 1.89991071e-004, 6.25585744e-005,
          -1.45002909e-004, -3.92755464e-004, -2.85374437e-004,
          1.47079962e-004, 2.76588660e-004, -1.67128586e-004,
          -1.93870408e-004, 1.75682348e-004, 2.57404259e-004,
          -3.63858562e-004, -7.20569748e-004, -1.65990641e-004,
          2.14188214e-004, 3.65317857e-004, -4.56742328e-006,
          4.00528574e-004, 3.40398808e-004, 1.08741704e-004,
          -6.68064051e-004, -5.02525654e-004, -3.97883065e-004,
          1.56235736e-004, 3.47143578e-005, 2.67415307e-004,
          -2.13638195e-004, 1.35256905e-005, 3.32096417e-004,
          -3.26663139e-004, -8.55233928e-004, -4.70013096e-004,
          -1.55485221e-004, 9.22086329e-005, -2.47172502e-005,
          3.13062454e-004, 2.16748769e-004, 2.43563147e-004,
          -2.87371658e-004, -4.24123282e-004, -3.73697665e-004,
          2.44148367e-004, 1.89854123e-004, 5.46194962e-004,
          4.51797358e-004, -1.12384216e-004, -5.10976533e-005,
          -1.09963919e-004, -7.82475981e-004, -3.41951905e-004,
          3.15382640e-004, 2.45518604e-004, 3.93569237e-004,
          3.57109355e-004, 2.76911906e-005, 4.82123960e-006,
          -1.23770529e-004, -6.95612340e-004, -3.47262219e-004,
          3.84123618e-004, 4.94385487e-004, 3.22485197e-004,
          1.81815762e-004, 7.55797446e-005, -3.11560543e-005,
          5.08200137e-005, -4.53296903e-004, -4.63151606e-004,
          1.77338909e-004, 2.38607681e-004, 1.09878485e-004,
          4.35067996e-005, 1.07278807e-004, 1.75797642e-004,
          2.26593911e-004, -6.81664445e-004, -2.48102326e-004,
          3.61907325e-004, 2.39563233e-004, -1.39732045e-004,
          -3.75263080e-005, -1.83051034e-005, -4.19304124e-005,
          -2.27759214e-004, -3.42595857e-004, -2.29391328e-004,
          3.54451651e-004, 2.84600537e-004, 5.78629661e-005,
          3.74639967e-005, -1.84485791e-004, 2.39158791e-004,
          -2.54889892e-005, 4.64254554e-005, -7.49477622e-005,
          5.81758562e-004, 4.34583140e-004, 3.55728116e-004,
          -2.90716474e-004, -3.19481594e-004, -2.24053132e-004,
          -8.01190981e-006, -5.18395798e-004, -1.38079515e-004,
          3.21374275e-004, 1.30769680e-004, -2.09633668e-004,
          -3.58339050e-004, -6.61063998e-004, -6.70566515e-004,
          -3.89236229e-004, -2.99387611e-004, -3.54526537e-006,
          7.86814664e-004, 4.94397304e-004, -2.53097358e-004,
          2.63318478e-004, -1.83084238e-004, 3.10025236e-004,
          -1.22198951e-004, 2.44802595e-005, -9.65744330e-005,
          4.27396386e-004, 9.97488241e-005, 4.05363739e-004,
          1.18682146e-004, -5.17186127e-004, 3.25579429e-004,
          -1.59612318e-004, 2.20796879e-004, 2.48501805e-004,
          6.45414460e-004, 1.72282569e-004, 5.13880281e-004,
          -5.71304758e-004, -7.74835353e-004, -6.45376102e-004,
          -6.61808474e-004, -1.98053429e-004, 2.15718910e-006,
          3.61378858e-004, 2.16989123e-004, -3.27865928e-005,
          -3.59827623e-004, -5.90126379e-004, -5.36659732e-004,
          -6.47147070e-004, -2.04756303e-004, 3.48087546e-004,
          3.66311695e-004, 1.13395552e-004, 1.95389090e-004,
          2.19385576e-004, -1.64042664e-004, 5.85972339e-005,
          -5.49874443e-004, 6.96799407e-006, -2.58336629e-004,
          1.69004197e-004, -5.78052022e-005, 6.18176709e-004,
          4.40995267e-004, 1.33406371e-004, 4.46330261e-004,
          -4.29403444e-004, 4.90440070e-005, -2.02902083e-004,
          -7.34442510e-005, -1.86175632e-004, 7.01181125e-004,
          4.65357734e-005, -3.69309128e-004, -4.15998511e-004,
          -5.62537636e-004, -3.10406787e-004, -2.82827648e-004,
          4.06015761e-006, -3.00443731e-004, 4.15417046e-004,
          2.54438579e-004, -4.58341601e-005, 2.60092173e-004,
          -5.64386661e-004, -1.34935966e-004, -2.82911147e-004,
          -3.00574233e-004, -2.05737262e-004, 4.80913877e-004,
          5.00642695e-004, 9.07978392e-004, 7.52266496e-004,
          -1.45031561e-004, 9.69468238e-005, 1.94909211e-004,
          -1.06677551e-004, -1.61937947e-004, 2.93427904e-004,
          2.47329117e-005, 1.04182378e-004, 1.94654916e-004,
          -4.65985446e-004, -2.47884775e-004, 1.12089285e-004,
          -7.37309019e-005, -1.13968708e-004, -7.76038651e-005,
          1.46572665e-005, 5.22573246e-004, 6.82087382e-004,
          -4.00452525e-004, -1.91602259e-004, -2.27189987e-004,
          -5.51283534e-004, -6.30170034e-005, 1.51875967e-004,
          1.34024318e-004, 1.22293437e-004, -1.86557008e-004,
          -5.15867956e-004, -2.83842353e-004, 4.07398184e-005,
          -1.69778737e-004, -9.97281531e-005, -4.36547271e-005,
          3.71571659e-004, 1.77673515e-004, -7.95508895e-005,
          -2.36529464e-004, -6.36597222e-004, -2.52925984e-005,
          2.87705596e-004, 2.86906550e-004, 1.77341397e-004,
          1.17389951e-003, 6.41670369e-004, 3.73062387e-004,
          7.75743174e-005, -1.00359299e-004, 7.30404208e-005,
          3.65948974e-004, 6.45711378e-004, 1.17118843e-003,
          2.39398069e-004, 3.75562304e-005, -1.72217624e-004,
          -3.73535644e-004, -4.19020682e-004, -1.60192198e-004,
          -1.77397262e-004, -2.67804920e-004, 1.31499750e-004,
          6.26592955e-004, 1.59529503e-004, 5.51636949e-005,
          -2.57187465e-004, 7.63193839e-006, -2.05733595e-004,
          3.32737436e-005, 1.54426380e-004, 6.31023897e-004,
          6.72501046e-004, 5.46547119e-004, 3.89875087e-004,
          2.47320946e-004, -5.89140807e-004, -9.57419034e-005,
          6.31259900e-005, 3.07483220e-004, 7.43290118e-004,
          -1.29177730e-004, -6.21457875e-005, 9.45268621e-005,
          2.39664485e-004, 6.17926926e-005, -2.19345238e-004,
          3.57508834e-004, 2.31533704e-004, 1.14315044e-004,
          5.45279181e-004, 7.12323599e-005, 6.37237245e-005,
          1.74601286e-004, -2.75071419e-004, -1.18712414e-004,
          8.29317069e-005, 2.08201629e-004, 6.37316261e-004,
          -5.15459069e-005, -1.04038896e-004, -6.81504171e-005,
          1.54268724e-004, -3.59676866e-004, -4.84546152e-004,
          -5.92624201e-005, 2.72994832e-004, 9.19304657e-005,
          -5.48572898e-005, -1.50216219e-004, -1.22868820e-004,
          8.78811716e-006, 5.54015220e-004, -4.27176390e-004,
          4.80897201e-004, 3.38616548e-004, 2.91248653e-005,
          8.22766742e-004, -2.44418392e-004, -6.06359135e-005,
          -2.07102945e-004, -3.05468973e-004, -2.93204095e-004,
          6.69477100e-004, 3.27176182e-004, 6.30979368e-004,
          -1.28831816e-004, -6.16802790e-005, -2.72514997e-004,
          -1.95888933e-004, -9.25554996e-005, -5.41875605e-004,
          1.38799194e-004, 4.44580583e-005, -2.20520742e-004,
          4.96183813e-004, -2.83641770e-004, -4.60976444e-004,
          -3.88980377e-004, -4.92230116e-004, -4.59220028e-004,
          4.85641300e-004, 1.55848727e-004, 2.42678318e-004,
          7.62019597e-004, -3.38181089e-005, 1.44316829e-004,
          -1.65626276e-004, 7.08720545e-005, -4.65152581e-004,
          9.48643938e-005, -8.21896392e-005, 3.88568267e-004,
          4.56305221e-004, 1.26013518e-004, 4.46018035e-004,
          -6.05133609e-005, 1.31906447e-004, -3.04261310e-004,
          2.11979379e-004, -5.38213586e-004, 1.67011909e-004,
          5.81309316e-004, -2.14865853e-004, 4.51686210e-005,
          -1.91467901e-004, -1.82181626e-004, -4.80805582e-004,
          -1.52261418e-004, -2.69643730e-004, 2.78324180e-004,
          2.04373500e-004, -1.27083867e-005, 2.01358373e-004,
          9.30474926e-005, -2.86308728e-004, -6.86065643e-004,
          -5.57206396e-004, -5.96899248e-004, -2.94421043e-004,
          4.76382062e-004, 1.56881186e-004, 4.91903629e-004,
          1.68176091e-004, 2.32696751e-004, -5.11675353e-005,
          3.58344463e-004, -2.64189817e-004, 2.27330092e-004,
          3.51676077e-004, 3.57569486e-004, 4.95119893e-004,
          -1.80176969e-004, 2.22295130e-005, -9.28664813e-005,
          2.29822865e-004, -2.13366264e-004, 3.05966842e-006,
          -6.78644428e-005, 2.57935928e-004, 4.27063991e-004,
          3.62466730e-004, -2.06075129e-004, -6.47475361e-004,
          -5.18872694e-004, -7.17316754e-004, -5.45600313e-004,
          -3.04094894e-004, 3.53400770e-004, 7.39318668e-004,
          -9.83202990e-005, -2.99797044e-004, -4.49315296e-004,
          -7.26232887e-004, -7.71246676e-004, -5.58436208e-004,
          2.40341047e-004, 6.04171189e-004, 5.26786724e-004,
          2.76608807e-005, -2.12060448e-004, -6.27901391e-005,
          1.28387343e-004, 1.87979476e-005, 8.22983857e-005,
          1.16538409e-004, 2.95105943e-004, 2.97647843e-004,
          -4.55248170e-004, -6.56698190e-004, -2.33269762e-004,
          -1.06033331e-004, -3.70676498e-005, 1.39796961e-004,
          -1.95076209e-005, 4.88862046e-004, 5.67822892e-004,
          1.42351404e-004, -4.86049161e-004, 9.92519126e-005,
          -2.70622259e-004, -3.26428621e-004, -1.35108799e-004,
          -2.24165706e-004, 4.66768070e-005, 2.29381709e-004,
          -3.39113205e-004, -7.46178906e-004, 1.43120415e-004,
          8.12677754e-005, 3.71957321e-005, -6.74064067e-005,
          3.84989398e-004, 3.94314266e-004, 2.27610872e-004,
          -5.56859362e-004, -9.08532995e-004, -3.03752837e-004,
          -2.65534705e-004, -1.75956375e-004, 3.47056572e-004,
          4.00404941e-004, 1.08989749e-004, 1.84170189e-004,
          -1.02667778e-004, -2.74763559e-004, -9.01888052e-005,
          8.73710378e-005, -3.63795480e-005, 4.36186790e-004,
          -8.96107013e-005, 1.00324120e-004, 6.20715655e-005,
          -7.07579835e-004, -6.27647620e-004, -1.80883683e-006,
          -2.46443058e-004, -8.21160065e-005, 4.57946990e-005,
          2.83072004e-004, 3.47002846e-004, 4.38975869e-004,
          1.41065524e-004, -9.29160038e-008, 2.38331777e-004,
          3.38618964e-004, 2.53865292e-004, 2.53953447e-004,
          4.78663540e-004, -4.49861036e-005, 8.67026974e-005,
          -5.44304348e-005, -4.11203684e-004, -1.52017281e-004,
          2.75837199e-004, 2.14256987e-004, 4.17628093e-004,
          3.29660717e-004, -1.16012518e-004, -1.53367786e-004,
          -1.76745816e-004, -8.05986871e-004, -4.58662311e-004,
          3.15985351e-004, 4.23544756e-004, 3.68636713e-004,
          3.22561100e-004, 1.86041696e-004, 2.03274845e-004,
          1.68537241e-004, -1.43076963e-004, -9.44962376e-005,
          3.68768407e-004, 3.81841266e-004, 2.93236575e-004,
          -1.85124427e-005, 1.41864120e-005, -1.30333487e-004,
          1.14101262e-004, -6.48769550e-004, -5.85747417e-004,
          1.18119693e-004, 5.25962460e-005, -1.31748835e-004,
          8.89966832e-005, 3.07798217e-007, -8.33554805e-005,
          -2.36237247e-004, -4.86836827e-004, -3.33768025e-004,
          2.72334117e-004, 2.61409237e-004, 1.08377484e-004,
          -1.79465042e-005, -8.94416371e-005, 2.03385935e-004,
          -5.35651525e-005, -5.54157486e-005, -2.78011394e-005,
          5.40119945e-004, 5.94284793e-004, 2.42909591e-004,
          -9.85683801e-005, -5.31414953e-005, -2.25339281e-005,
          1.10894718e-004, -6.96623407e-004, -2.45430623e-004,
          1.91188839e-004, 7.70779952e-005, -1.55626229e-004,
          -2.94899481e-004, -5.59980806e-004, -5.20523579e-004,
          -1.10419496e-004, -4.34750225e-004, 1.04229504e-004,
          6.89978653e-004, 4.74066939e-004, -1.72651344e-004,
          2.07201811e-004, -1.73637629e-004, 2.67157622e-004,
          -8.84726542e-005, 3.65511296e-005, -2.06142853e-004,
          4.20653756e-004, 2.04594951e-004, 4.18865529e-004,
          1.94940963e-004, -4.15946299e-004, 4.25941602e-004,
          -6.38751299e-005, 2.29092897e-004, 3.17189726e-004,
          6.20928535e-004, 1.80463627e-004, 4.97251516e-004,
          -6.07453694e-004, -7.76241068e-004, -7.49107217e-004,
          -5.51404606e-004, -1.94544351e-004, -1.35109585e-004,
          6.55962795e-004, 2.90801137e-004, -2.15915556e-004,
          -5.32816921e-004, -7.01650744e-004, -4.82657779e-004,
          -6.91567140e-004, -2.57218489e-004, 4.29612439e-004,
          4.80184855e-004, 2.24041520e-004, -4.18480704e-005,
          2.55629595e-004, 2.39130284e-004, -5.80185144e-007,
          8.92387907e-005, -1.27988882e-004, -7.85539596e-005,
          1.22681449e-004, 3.58407240e-004, 3.08986229e-004,
          -2.17500885e-004, 6.33282571e-006, -7.38231320e-005,
          3.05045600e-004, -3.54581498e-005, 1.77628346e-004,
          2.74593593e-004, 3.19584447e-004, 1.79749113e-004,
          -1.70472878e-004, -1.23344202e-004, -4.12227644e-004,
          -1.71009378e-004, -1.49706044e-004, -6.91476380e-005,
          -5.92722245e-005, 1.36855786e-004, -1.23100530e-004,
          -3.42113257e-004, -2.04856784e-004, -3.39560444e-004,
          -2.96998420e-004, -1.00866928e-004, -2.32751801e-004,
          -4.54121146e-005, -1.04706902e-004, -5.76897583e-006,
          -1.24645288e-004, 3.61667480e-005, -2.72698322e-004,
          8.99443767e-005, -9.39996607e-006, 4.53697779e-004,
          6.37557358e-004, 3.98668490e-004, 1.50730702e-004,
          -5.90583950e-005, 8.55819017e-005, -4.97221015e-004,
          -1.55066518e-004, 1.51267246e-004, 1.88027421e-004,
          7.58135226e-004, 5.78442996e-004, -2.76645405e-005,
          -2.98557046e-004, -1.76342306e-004, -6.33756397e-004,
          -5.65014896e-004, -4.01494995e-004, -1.97502100e-004,
          -1.07831547e-004, -1.36366929e-004, -1.36396820e-005,
          2.19415058e-004, -8.21288195e-005, -7.96298846e-004,
          -5.57951629e-004, -3.17834601e-005, -2.16481480e-004,
          2.60440080e-004, 3.01448745e-004, 2.13025760e-005,
          -2.35364278e-004, -2.67212134e-004, -5.91573073e-004,
          -5.61891473e-004, -1.09037472e-004, 7.46061005e-006,
          1.90570150e-004, 3.64640204e-004, -2.29615835e-005,
          1.75331697e-005, -2.82049208e-004, -4.43201687e-004,
          -2.31890852e-004, -5.77761421e-005, 6.49991387e-004,
          3.13261757e-004, 5.57597377e-004, 2.95038102e-004,
          1.93247251e-004, -2.19973983e-004, -7.25303136e-004,
          -5.44061477e-004, -1.25840554e-004, -1.57521950e-004,
          1.84145450e-004, 3.11458833e-004, -6.30486420e-006,
          1.68973420e-004, -3.03388515e-004, -6.94435439e-004,
          -3.65194661e-004, 1.63240184e-005, 9.53432536e-005,
          3.75864649e-004, 4.63629432e-004, -6.64229956e-005,
          5.60113112e-004, -1.12742011e-004, -2.22825765e-004,
          8.08893456e-005, -5.00353453e-005, 2.68656819e-004,
          3.45530192e-004, 1.75475812e-004, 6.94783230e-004,
          1.62046381e-005, 3.89203517e-004, 3.52695177e-004,
          -7.00631281e-005, -1.06273283e-005, 5.32900913e-006,
          1.25901322e-004, 2.04358352e-004, 6.45101885e-004,
          -2.05457891e-005, -7.79439506e-005, -3.71392147e-004,
          -4.41417360e-004, -3.18375562e-004, -1.02763079e-004,
          -8.36146355e-005, -1.11984416e-004, -1.73368870e-004,
          -2.89365445e-004, 1.14170478e-004, 1.78481641e-004,
          -3.49423586e-004, -2.82752299e-004, -2.20256654e-004,
          -4.58355265e-004, 2.87434850e-005, 3.50172081e-006,
          -1.20983423e-004, 3.92653368e-004, 4.98548499e-004,
          1.59612697e-004, 8.83844623e-005, 2.07714165e-005,
          -1.79219642e-004, 2.10975952e-004, 2.38111272e-004,
          1.10657304e-004, 1.13830974e-004, 1.91963642e-004,
          9.23192347e-005, 5.39747009e-004, 3.52192495e-004,
          -4.46183658e-005, 9.39390520e-005, -3.43448264e-005,
          -1.82944292e-004, 1.79534418e-005, 1.96524110e-004,
          3.61111131e-004, -1.42579462e-004, -4.17158735e-004,
          -1.00322603e-003, -2.09052843e-004, -1.09667024e-004,
          2.46564105e-005, -2.29023790e-004, -1.73486231e-004,
          2.91655975e-004, 6.12206815e-004, -1.48008010e-004,
          -4.29431355e-004, -9.92066416e-005, -1.63548219e-004,
          3.76306998e-004, 1.51705462e-004, 1.34785078e-004,
          -1.15566741e-004, 2.97494960e-004, 1.14675298e-004,
          -2.09429942e-004, -1.42602046e-004, 1.23983496e-004,
          4.65177174e-004, 7.52137294e-006, -1.79647337e-004,
          -1.37298674e-004, 1.33124471e-004, -1.20202902e-004,
          -1.89133119e-004, 4.25373855e-006, 4.68060462e-004,
          -6.54371033e-005, -1.47334169e-004, -1.50517270e-004,
          -9.17075740e-005, 5.22075512e-004, -2.08107507e-004,
          -6.64275663e-004, -3.01701220e-004, -2.49532895e-004,
          1.11550784e-004, -1.00533362e-005, -3.36472120e-004,
          6.19146595e-005, 3.02534580e-004, 7.19867749e-005,
          -3.37724487e-004, 1.81873679e-006, 1.08167886e-004,
          2.20342306e-004, -1.15155875e-004, -2.30673642e-004,
          2.04687331e-005, 5.40239198e-005, -1.95595931e-004,
          1.06515785e-004, 1.29314547e-004, 4.24025871e-004,
          -2.26766915e-005, 5.33003331e-005, -7.44843856e-005,
          4.16543859e-004, 7.03456928e-004, 1.25756094e-004,
          1.82901596e-004, 1.76278423e-004, 2.32991297e-004,
          -1.25520120e-004, 2.58882101e-005, -1.25049817e-004,
          -8.34456387e-006, 3.67056782e-004, -1.04748040e-004,
          -1.70624131e-004, -5.08269950e-005, 9.57633165e-005,
          -2.78077525e-004, -3.18186590e-004, -7.85176002e-004,
          -1.64128855e-004, 6.85283216e-004, 2.13335603e-004,
          -1.86891921e-004, -2.69225537e-004, 1.78137179e-005,
          1.39456766e-004, 2.65017123e-004, -1.51419033e-006,
          1.23320118e-004, 3.56947479e-004, 6.52060407e-005,
          5.38454740e-004, 1.39087861e-004, -1.40814416e-004,
          7.64687313e-004, 2.59970082e-004, 8.54769751e-005,
          -4.57344067e-005, -3.40575236e-004, 4.05007922e-005,
          4.64674929e-004, 4.85449069e-004, 1.21209618e-004,
          -7.42275442e-005, 4.84868497e-006, -5.51299017e-004,
          -2.92879267e-004, 7.14023045e-005, 3.86060332e-004,
          1.79817522e-004, -1.55331494e-004, -1.01662750e-004,
          8.03477815e-005, 7.07148138e-005, -5.06920274e-004,
          -2.82099005e-004, -6.40792714e-004, -2.72747508e-004,
          3.22474138e-004, 2.69576441e-004, -1.98388138e-004,
          7.23228499e-004, 1.55507500e-004, 3.09235475e-004,
          2.00484952e-004, -1.04087827e-004, 2.35269054e-005,
          -6.12208751e-005, 8.19744582e-006, 6.10000454e-004,
          3.29310511e-004, 4.47894621e-004, 1.95541666e-004,
          4.96581371e-004, -1.04679624e-004, -2.70803546e-004,
          -4.15684743e-004, -2.57242908e-004, 6.13839511e-005,
          -9.23368352e-005, -3.02238677e-005, -6.83532489e-005,
          -8.00541602e-005, -3.63128871e-004, -4.42644086e-004,
          -2.70073273e-004, -1.05178107e-004, -6.66291671e-005,
          -1.36878196e-004, 2.23362265e-004, 2.28740813e-004,
          -6.14906021e-005, -2.00717859e-005, -3.74345691e-004,
          -6.87531254e-004, -3.50456423e-004, 6.31473740e-005,
          4.83354124e-005, 4.35499038e-004, 3.92411923e-004,
          3.68994079e-004, 1.11435547e-005, -3.36323807e-004,
          -5.17821696e-004, -3.00357555e-004, -2.26133518e-004,
          -8.15332314e-005, 4.59420815e-004, 6.78899698e-004,
          1.08108390e-004, 4.81057759e-005, -2.67786090e-004,
          -5.03361924e-004, 7.60993134e-005, -8.39159402e-005,
          4.12556692e-005, 3.86809290e-004, 2.85723567e-004,
          6.91834139e-005, 6.19596249e-005, -4.34468791e-004,
          -6.80916943e-004, -9.28225490e-005, 2.57559150e-004,
          -6.42741088e-006, 2.71688186e-004, 2.22492527e-004,
          -2.19810143e-004, -1.55212747e-005, -5.99773601e-004,
          -7.83682975e-004, -7.92954961e-005, 1.57928502e-004,
          2.89885647e-004, 6.80787314e-004, 7.89304147e-004,
          5.55209932e-004, 5.90365562e-005, 2.17270470e-004,
          -2.30916819e-004, 8.18497356e-005, 1.78866449e-005,
          7.63738281e-005, 2.59206077e-004, 2.54374056e-004,
          1.33643378e-004, -7.12826804e-005, 1.03056133e-004,
          -1.32845787e-004, -3.68787951e-005, -2.76614766e-004,
          8.10087076e-005, -1.76282174e-005, 3.71956157e-005,
          -1.79831084e-004, -2.56222993e-004, -4.76973451e-004,
          -6.13036740e-004, -1.27189443e-004, -8.57932464e-005,
          5.57675889e-007, -1.40311677e-004, -7.81624840e-005,
          -2.81963963e-004, -1.77766255e-004, -4.07462270e-004,
          -4.35271271e-004, -2.62835674e-004, -3.67291796e-004,
          1.06010404e-004, 1.97255576e-004, 1.90019437e-005,
          -3.11421463e-004, -2.32233651e-004, -2.98210234e-005,
          -2.52576370e-004, 5.53212376e-005, -9.32547482e-005,
          6.96134637e-004, 4.94259177e-004, 2.55822408e-004,
          3.30494397e-004, 2.00775918e-004, 3.75220086e-004,
          1.98142472e-004, 3.95901036e-004, 7.00825534e-004,
          -3.11584707e-004, -8.37867628e-005, -1.51649525e-004,
          -2.76977778e-004, -2.62933841e-004, -4.16310126e-004,
          -4.65360325e-004, -2.04811979e-004, -3.22576729e-004,
          -1.10902431e-004, 1.00634279e-004, -2.13693693e-005,
          8.85941772e-005, -1.14219110e-004, 1.58605344e-005,
          -7.94909429e-005, 1.15506509e-005, 8.14605664e-006,
          5.38646302e-004, 3.49928072e-004, 1.08401997e-004,
          3.01598775e-004, 3.45601038e-005, 1.37518407e-004,
          2.08917481e-004, 5.11803373e-004, 5.36288368e-004,
          -2.23941184e-004, 4.64471341e-005, -1.46236387e-004,
          1.04950814e-004, -1.38683026e-004, -2.09453458e-004,
          -5.92138713e-006, 1.67027116e-004, 1.21035424e-004,
          -4.76971436e-005, -3.85598287e-005, -1.65521400e-004,
          -5.20778158e-005, -1.67791179e-004, 1.61425105e-005,
          -4.49830623e-005, 1.75298192e-004, 3.90955165e-006,
          -3.82917642e-004, -2.19897862e-004, -3.75618576e-004,
          -3.51725350e-004, -1.49091647e-004, -2.93378136e-004,
          -1.19156161e-004, -9.53087510e-005, -1.53775050e-004,
          -2.22319810e-004, -3.56853052e-005, -1.65167119e-004,
          8.58282292e-005, -7.07849249e-005, 2.99230596e-004,
          4.11726447e-004, 3.20664985e-004, 1.19865777e-004,
          3.34830702e-006, 1.68910949e-004, -3.82374361e-004,
          9.19491576e-005, 1.21954035e-004, 4.63811477e-004,
          8.66618881e-004, 6.56036718e-004, 1.85837256e-004,
          -4.06563253e-004, -2.10340120e-004, -4.99385002e-004,
          -4.92435647e-004, -3.70762311e-004, -2.34446197e-004,
          -9.44217609e-005, -1.39266805e-004, -3.08079798e-005,
          -2.29318102e-005, -1.43317389e-004, -7.36828428e-004,
          -5.55647362e-004, -1.13766837e-004, -2.05583827e-004,
          1.22014644e-004, 7.95817905e-005, 5.90568670e-005,
          -1.97976668e-004, -9.01359599e-005, -6.23487926e-004,
          -4.13022266e-004, -5.83434985e-006, -5.62222594e-005,
          4.93729487e-004, 3.89694324e-004, -1.06992666e-004,
          -1.44433783e-004, -2.61562702e-004, -4.29303531e-004,
          -3.47997731e-004, -5.31729602e-005, 5.59531094e-004,
          3.99682816e-004, 6.10238232e-004, 1.02144462e-004,
          2.42326219e-004, -1.53158922e-004, -7.75045191e-004,
          -5.61384135e-004, -7.73058491e-005, -2.35602740e-004,
          2.81503570e-004, 3.23433342e-004, -2.66576317e-005,
          2.35354295e-004, -1.99857750e-004, -6.65956759e-004,
          -4.19038406e-004, 1.16857431e-004, 1.74543573e-004,
          2.52433470e-004, 4.46681428e-004, 7.48193779e-005,
          -2.78561292e-005, -9.51976631e-007, -2.72399309e-004,
          -1.86321995e-004, 7.45649304e-005, -1.44745776e-004,
          1.29256790e-004, -4.07702719e-005, -8.45961622e-005,
          -8.31123034e-005, -8.84964902e-005, -2.12432045e-004,
          -4.32352317e-005, -2.11963095e-004, -2.10530678e-004,
          3.03048437e-004, 1.76012050e-004, 6.36839741e-006,
          1.51338754e-004, 3.46674089e-004, -1.52854438e-004,
          -3.95046576e-004, 2.84823109e-005, -3.71910312e-004,
          -1.71397362e-004, 2.93604535e-004, 1.39535856e-004,
          -1.64537109e-004, -1.15427087e-004, -3.22930609e-005,
          -1.13823888e-004, -1.19905628e-004, -1.00775185e-004,
          2.52565333e-005, -1.07574691e-004, -1.61740085e-004,
          -4.83920267e-005, -1.80037576e-004, -5.28759672e-004,
          -2.24532370e-004, -3.67894012e-004, -2.25489668e-004,
          -1.37881027e-004, 2.90471107e-005, -1.11563138e-004,
          5.35147788e-004, 4.88226578e-005, -7.17162446e-004,
          -3.18237202e-004, 3.53506854e-004, 3.08428076e-004,
          4.03178943e-004, 5.71848708e-004, 2.27474127e-004,
          -2.82994530e-004, -1.80999166e-004, -4.58189781e-004,
          -2.41923408e-005, -3.01459921e-004, -1.92801363e-005,
          -3.89326073e-004, -1.50502980e-004, -2.71576137e-004,
          -1.35518610e-004, 1.47509327e-005, -5.09620819e-004,
          2.27338547e-004, 3.56882403e-004, 2.65748211e-004,
          -4.47926985e-004, 2.27125292e-005, -1.32946821e-004,
          2.19475914e-004, -4.42241617e-005, -4.47878032e-004,
          -5.83586152e-005, 2.08887650e-004, 1.18358963e-004,
          3.44645872e-004, 5.43490401e-004, 3.54069256e-004,
          1.84088087e-004, -3.14998761e-004, -1.94531327e-004,
          -1.05203704e-004, 1.20839984e-004, -5.06972647e-005,
          1.69304170e-004, 2.89985619e-004, 2.13070511e-004,
          -6.44349784e-005, 4.86813269e-006, -3.26572044e-004,
          2.36280306e-004, 9.95799564e-005, 2.52690952e-004,
          -2.67390395e-004, 3.13599994e-005, -4.62302960e-005,
          1.38863645e-004, -2.19280890e-004, -4.56253183e-004,
          -1.76107729e-004, -4.80821982e-005, -1.90054168e-004,
          -4.57023183e-004, -1.77334834e-004, 1.58308481e-004,
          1.09853201e-004, -1.11429552e-004, -6.34854950e-006,
          -1.29131047e-004, -5.92166107e-005, -5.05963544e-005,
          -1.70217972e-005, -5.45731818e-005, 3.27994494e-005,
          -7.15471688e-005, 1.51574073e-004, 4.33652836e-004,
          1.76094152e-004, -7.24313213e-005, -1.02140606e-004,
          -2.05376607e-004, -1.36897652e-004, -1.36905452e-004,
          5.05901407e-005, -1.43264246e-004, -2.64345406e-004,
          -1.61751857e-004, -2.09961989e-004, -1.63369899e-004,
          -2.90575728e-004, -1.23219826e-004, 4.84396478e-005,
          -1.71698790e-004, -5.35309955e-005, 4.01814643e-004,
          1.19387965e-004, -7.72551175e-007, 1.00940822e-004,
          3.49336478e-004, -8.88089271e-005, -1.88192658e-004,
          -5.19255918e-005, 2.08943587e-004, 6.27375732e-004,
          5.41905756e-004, 2.58839194e-004, -2.45641248e-004,
          -6.63554471e-004, -3.43341322e-004, -2.78998719e-004,
          -1.17623204e-004, -1.56729802e-004, 1.29419088e-004,
          2.99138308e-004, 6.79063960e-004, -2.10428043e-004,
          -1.46348029e-004, -8.51104123e-005, -3.98970413e-004,
          -6.14468299e-004, -3.67761531e-005, 1.90065606e-004,
          1.10129899e-004, 5.28733290e-005, 8.13744846e-005,
          1.03800856e-004, -7.96535242e-005, -6.24159409e-004,
          -8.63366353e-004, -1.59765084e-004, 1.60071839e-004,
          2.32573409e-004, 2.94896076e-004, 2.21850656e-004,
          1.69717852e-004, -1.59182790e-004, -8.82349093e-004,
          -6.84062616e-005, -8.56024126e-005, -9.25483473e-005,
          1.22062411e-004, 2.69023411e-004, -2.22804283e-005,
          5.16994733e-005, -6.33420350e-005, -2.36485881e-004,
          3.08594645e-005, -2.79685555e-005, 7.24436468e-005,
          2.51155609e-004, -5.39070652e-006, 2.47771473e-004,
          5.92021352e-005, -1.01444366e-005, 4.73092405e-005,
          -8.04142852e-004, -2.83821806e-004, 9.31065224e-005,
          2.23049894e-004, 1.76147427e-004, 2.47628486e-004,
          1.37786657e-004, -2.72031379e-004, -8.21210095e-004,
          -6.15339319e-004, -2.75506667e-004, -1.19389108e-004,
          2.34627732e-004, 9.90505723e-005, 2.36095919e-004,
          -1.16609532e-004, -2.74479360e-004, -6.15356781e-004,
          -4.45193582e-005, 4.62935532e-005, 1.56297698e-004,
          6.09868366e-005, 8.59638676e-005, 9.03448235e-005,
          -5.14802123e-005, -1.62316446e-005, 7.66574885e-005,
          -4.62838827e-004, -1.93751664e-004, -2.16373475e-004,
          -2.68822187e-004, 6.32925949e-004, 2.99515610e-004,
          9.77609088e-005, -1.57433795e-004, -4.39291362e-005,
          -6.50110655e-004, -1.64832949e-004, 2.06625627e-004,
          1.88435515e-004, 1.18263284e-004, 1.67217469e-004,
          1.69145642e-004, -1.75308727e-004, -6.35772420e-004,
          -1.05467997e-003, -2.43470087e-004, 1.11531481e-004,
          2.25842101e-004, 2.59541732e-004, 2.43019531e-004,
          1.02681559e-004, -2.42281865e-004, -1.03823678e-003,
          -4.11455840e-004, -1.80208997e-004, -3.65520769e-004,
          -1.20037286e-004, 3.38926126e-004, 3.73297022e-004,
          4.02255217e-004, -5.89982701e-005, -1.67065737e-004,
          -2.09813443e-004, -1.87772748e-004, -3.73267656e-004,
          -1.44091435e-004, -3.61294544e-004, 2.14903106e-004,
          4.73752763e-004, 1.67049729e-004, -2.22326003e-006,
          -6.96643954e-004, -7.39665120e-005, 5.35812324e-005,
          2.02010648e-004, 4.33148263e-004, 2.22079412e-004,
          9.47270382e-005, -5.98904880e-005, -6.87635096e-004,
          -3.74551571e-004, -1.22515543e-004, 2.95058300e-004,
          7.85843586e-005, -1.57666233e-004, 1.09317472e-004,
          3.48471658e-004, -7.85573284e-005, -3.60298611e-004,
          -2.31755585e-005, -1.39549797e-004, 1.23664413e-005,
          -7.07697041e-007, -1.68033293e-004, -1.10081593e-004,
          -1.21712565e-005, -9.79126125e-005, 4.17228584e-005,
          2.83152767e-004, 2.18116998e-004, 2.11579594e-004,
          6.79508521e-005, 3.16712045e-004, 9.08999209e-005,
          -9.03920663e-005, -2.42679496e-004, 2.48730677e-004,
          3.89341476e-005, -1.42129880e-004, -2.14132378e-004,
          -5.72710633e-005, -2.79362343e-004, -5.82897628e-005,
          -2.01945717e-004, -1.46838705e-004, 4.34860449e-005,
          1.88346428e-004, -1.45765356e-004, -3.93066410e-004,
          5.09388046e-005, 7.99896079e-005, 6.26200490e-005,
          -3.87233915e-004, -1.76431931e-004, 1.72308093e-004,
          4.89277649e-004, 5.60391112e-004, 3.90460831e-004,
          1.38422256e-004, 2.42892245e-004, -3.56522396e-005,
          -2.55883904e-004, -2.02878378e-004, 2.44947063e-004,
          3.27448251e-005, 4.40792617e-004, 1.77406051e-004,
          8.07028264e-005, 2.26662800e-004, -4.92164516e-004,
          -8.34239414e-004, -2.37265587e-004, 2.90216383e-004,
          9.29408125e-005, 3.53146129e-006, -1.77293929e-004,
          2.09658276e-004, -2.76340688e-005, 1.99858099e-004,
          -2.20641159e-004, -3.65240485e-005, 6.36713085e-005,
          -2.27833472e-004, -1.07425782e-004, -6.75537973e-004,
          5.09410238e-005, 2.20170172e-004, 1.56156675e-005,
          -7.22061319e-004, -1.22735262e-004, -2.28261881e-004,
          1.67585764e-004, 2.33360639e-004, 1.32134213e-004,
          1.95564906e-004, 1.29403837e-004, -5.80129235e-005,
          -5.60068293e-004, -1.51173837e-004, 3.21417290e-004,
          -1.70113126e-005, 7.10849272e-005, 2.73653626e-004,
          -2.57535256e-004, -7.12930050e-005, -1.47308994e-004,
          -2.47001619e-004, -1.51535060e-004, -1.55778835e-004,
          -1.88499253e-004, 1.64703761e-005, -1.95682529e-004,
          2.22032657e-004, 2.13462001e-004, 2.04782948e-004,
          -2.62475020e-004, 1.44752426e-006, -1.92851105e-004,
          -2.31555619e-004, -1.71668435e-004, -6.71932066e-005,
          -1.39601078e-004, -4.77952817e-005, -1.58581024e-004,
          -1.32351415e-004, -1.39921074e-004, -2.38520370e-004,
          -2.14159867e-004, -1.68547012e-005, 1.85010111e-004,
          -1.63578603e-004, 5.78603722e-005, -2.20437243e-004,
          -3.84695712e-004, -1.61703661e-004, -2.02325275e-004,
          6.19984276e-005, 7.05055063e-005, 1.74584260e-004,
          -1.69557854e-004, -1.09277798e-005, -1.25071732e-004,
          1.66866754e-004, 2.76306127e-005, 6.45728214e-005,
          -1.05237254e-004, -5.59839318e-005, -2.42093258e-004,
          -3.19298822e-004, 1.00860685e-004, -3.47649533e-004,
          -2.56724452e-004, -2.27101536e-005, -9.88486645e-005,
          2.25244672e-004, 2.82315945e-004, 5.86435599e-005,
          -6.25701214e-004, -4.07288026e-005, -6.30233844e-004,
          7.03594778e-005, 2.87641044e-004, 2.23720752e-004,
          1.13999122e-004, -5.88420426e-006, 1.95376469e-005,
          -1.47582468e-004, -5.17761291e-005, -1.79812865e-004,
          8.55502003e-005, -6.85684381e-006, 1.68889765e-005,
          -2.73261365e-004, -1.27696534e-004, -3.27264948e-004,
          -1.78070783e-004, 2.60301676e-005, -1.91809420e-004,
          3.02850647e-004, 5.87043542e-005, -1.56646536e-004,
          2.96907034e-004, 2.79774627e-004, 3.09334173e-005,
          -5.07645542e-004, -1.12882211e-004, -4.97772475e-004,
          7.17881176e-006, 2.40626876e-004, 2.85469141e-004,
          -1.71890977e-004, -9.81742414e-006, -1.90963503e-004,
          -2.80954497e-004, 1.57863087e-006, -2.52604514e-004,
          -1.51280779e-004, -3.66628810e-005, -1.75206049e-004,
          -1.33888636e-004, -1.14871567e-004, -2.55413208e-004,
          -1.23341961e-004, -4.01999219e-004, -2.74662918e-004,
          8.13392398e-005, 5.77344144e-005, -6.63890532e-005,
          3.22276755e-004, -6.39479476e-005, -6.97615906e-004,
          -1.72635890e-004, 3.65997519e-004, 2.71124154e-004,
          2.65475916e-004, 3.60296515e-004, 1.46286344e-004,
          -2.82781373e-004, -2.20616013e-004, -1.85571742e-004,
          -7.43313212e-005, -4.24027472e-004, -6.74901457e-005,
          -1.15012583e-004, -1.80876727e-004, -2.68675067e-004,
          -2.03171483e-004, -1.79926428e-005, -5.09574544e-004,
          2.64016620e-004, 3.66504362e-004, 2.94004218e-004,
          -4.20237891e-004, -1.34319635e-005, -1.98299953e-004,
          2.19629219e-004, -1.09865628e-004, -7.58407463e-004,
          -3.14317353e-004, 2.01029019e-004, 6.77496864e-005,
          3.02441476e-004, 5.08268131e-004, 1.33917623e-004,
          2.24188771e-004, -3.03302601e-004, -1.54466718e-004,
          -4.76090099e-005, 1.74714471e-004, 8.05233503e-005,
          2.53377919e-004, 4.48153442e-004, 4.28699073e-004,
          -1.85971847e-004, -4.80189956e-005, -5.83498157e-004,
          7.22064433e-005, 2.34825289e-004, 9.95174560e-005,
          -5.11137594e-004, -2.65095478e-005, -1.80021845e-004,
          1.69613602e-004, -1.36406336e-004, -2.90283147e-004,
          7.07620857e-005, -3.12603661e-005, 7.04936101e-005,
          -2.62866815e-004, -9.98540272e-005, 1.89896775e-004,
          -9.23831831e-005, -8.79650106e-005, 7.77271707e-005,
          -2.16516579e-004, -5.24881671e-006, -3.15798912e-004,
          -2.93536898e-004, 5.98547522e-005, 7.29839439e-006,
          -1.48988591e-004, 1.87611688e-004, 3.08939401e-004,
          -2.28414967e-004, -3.41409293e-004, -1.48554987e-004,
          -3.42906365e-004, -1.41366501e-004, -2.00015565e-004,
          9.98901014e-005, 2.34579886e-004, 5.61903325e-005,
          7.04772174e-005, 9.73620918e-005, 5.79950647e-005,
          -1.42588673e-004, -1.64009962e-005, 3.89011802e-005,
          2.63793248e-004, 9.33466581e-005, 1.50963984e-004,
          -5.51621051e-005, 1.51193119e-004, -1.19663411e-004,
          -2.71689409e-004, -9.51997863e-005, -1.09839653e-004,
          -2.17086068e-004, 5.71096389e-005, -1.43896599e-004,
          -1.60214739e-004, -4.18682670e-004, -1.72416345e-004,
          -6.66035339e-004, -3.62923311e-004, -6.56008197e-005,
          2.13403546e-005, 3.45601846e-004, 2.55056395e-004,
          3.11635522e-004, 2.18331217e-004, -2.44868686e-004,
          -7.95439875e-004, 6.95363051e-005, 2.21140363e-004,
          6.60924488e-005, -1.11793932e-004, 1.33629055e-005,
          -1.11036941e-004, -5.97200524e-005, -4.36985254e-004,
          -5.60140354e-004, -1.07310894e-004, -1.78353541e-004,
          3.32483207e-004, 4.95285087e-004, 3.64293344e-004,
          1.57568338e-005, 2.45935866e-004, -4.24091006e-004,
          -6.10464718e-004, 2.06219891e-004, 5.55884617e-004,
          1.98705107e-004, 3.89830064e-004, 2.84626527e-004,
          1.28121144e-004, 6.63474784e-005, -1.03813654e-004,
          -5.38182328e-004, -1.24314451e-004, -1.26619898e-005,
          1.37497860e-004, 1.57634655e-004, 1.84232194e-005,
          -1.43646437e-004, -1.78651520e-004, -2.90625176e-004,
          -3.48277594e-004, -4.55998030e-004, -3.95562674e-005,
          1.26581624e-004, 3.68173147e-004, 2.61192967e-004,
          -1.01656762e-004, 7.76297748e-005, -5.36895299e-004,
          -6.78826240e-004, -1.63132121e-004, 3.96262534e-004,
          3.67648827e-005, 3.75919481e-004, 3.88266111e-004,
          1.14415678e-004, 1.38496674e-004, -3.16146616e-004,
          -5.23128954e-004, -1.82404488e-004, 2.94990808e-004,
          -1.42510064e-004, -2.14176733e-004, -2.06381155e-004,
          -1.87755446e-004, -2.43914037e-004, -2.49886594e-004,
          -2.25616532e-004, -2.32791033e-004, -4.08169035e-005,
          -2.81258952e-004, -2.87164556e-004, -3.52641015e-004,
          -1.77876602e-004, -2.07724588e-004, 1.30923465e-004,
          3.76385782e-004, 2.27140463e-005, -1.41836994e-004,
          2.28539953e-004, -2.85686656e-005, 6.46429398e-005,
          4.69286715e-005, -2.95067839e-005, -1.41140379e-004,
          -4.55853042e-005, 2.03566626e-004, 2.94710568e-004,
          2.09341553e-004, 2.41923466e-004, -1.88011036e-004,
          -6.58102435e-005, -5.21049733e-005, -2.91091110e-005,
          3.48023139e-004, 3.43057356e-004, -1.29047912e-004,
          -5.88691386e-004, -4.74224245e-004, -6.70882175e-004,
          -3.32044787e-004, -5.50249097e-005, 3.26589623e-004,
          4.93056607e-004, -4.88590340e-005, -3.72626440e-004,
          -8.23234674e-004, -1.74057292e-004, -1.53295536e-004,
          -2.62972491e-004, 4.64494893e-004, 2.72687292e-004,
          -4.02607693e-005, -3.27066431e-004, -3.90484056e-004,
          8.03195799e-005, -2.87188177e-005, -6.74491515e-004,
          -2.01575502e-004, 2.17089313e-004, 6.22580934e-004,
          3.99773446e-004, 1.83348908e-004, -9.05446450e-006,
          -1.53987003e-005, 3.20922954e-005, -2.86698138e-004,
          4.89290733e-006, 8.30150035e-004, 5.18208602e-004,
          4.96194916e-005, -5.49536526e-005, 2.20466260e-004,
          -8.20603978e-004, -2.89823744e-004, -6.02629298e-005,
          -2.95788068e-005, 1.40560209e-004, 9.66988810e-005,
          -2.99005449e-004, -3.47745314e-004, -5.32704697e-004,
          -5.54423372e-004, -3.02414875e-004, -8.00879643e-005,
          1.88109974e-004, -1.11583940e-005, 1.90121980e-004,
          -8.88131981e-005, -3.14332923e-004, -5.73006750e-004,
          -6.89247099e-006, -1.21469620e-005, -1.44244710e-004,
          -5.36463704e-005, 4.91257641e-004, 5.69009753e-005,
          -1.29393911e-005, 2.13218682e-005, 1.39716838e-004,
          3.97927826e-004, 1.40375865e-004, -1.73059030e-004,
          1.55958289e-004, 2.70589924e-004, 1.54890586e-004,
          -1.88100821e-004, 1.24378188e-004, 3.96918826e-004,
          -3.59087979e-004, -2.56468542e-004, -3.12682358e-004,
          7.82834904e-005, -5.42816852e-005, 3.16446130e-005,
          1.20012468e-004, -8.27725817e-005, -5.28897042e-004,
          -4.80436021e-004, -4.15185874e-004, -1.52594366e-004,
          2.68941571e-004, 3.93570401e-004, -3.11281154e-004,
          -2.74999038e-004, -3.22222913e-004, -9.40776430e-004,
          2.88349693e-004, 1.04602594e-004, -6.90926536e-005,
          6.25882749e-005, 3.86668224e-004, 3.51969575e-005,
          -2.75809125e-005, 1.19787779e-004, 8.96526617e-005,
          2.24857533e-004, -6.68855573e-005, 3.70837843e-005,
          4.82075731e-004, 8.30034900e-004, -4.17168594e-005,
          -4.13162052e-004, -1.00560559e-004, -7.98274341e-005,
          -3.40728322e-004, -1.66079917e-004, 2.96078477e-004,
          3.35862394e-004, 2.34342122e-004, -2.03643955e-004,
          -3.83449078e-004, -2.47841788e-004, -5.87266521e-004,
          -4.07875254e-004, 8.81691958e-005, 4.39674041e-004,
          1.56869035e-004, -5.07824589e-004, -1.91413405e-004,
          -4.62919095e-004, -2.95385951e-004, -4.98627254e-004,
          2.82493129e-005, 2.47620756e-005, 4.04311955e-004,
          5.78022504e-004, 4.22298501e-004, -5.82880166e-005,
          -3.38334183e-004, 9.94203438e-005, 1.62721881e-005,
          3.46831912e-005, 4.37498500e-004, 5.09029545e-004,
          5.43674942e-005, -2.49385543e-004, -1.12388487e-004,
          -2.80924927e-004, 2.59322464e-004, 2.76729726e-004,
          -9.55483411e-005, -2.12486135e-004, -1.59445146e-004,
          -2.01798757e-004, -3.67984263e-004, -1.41800367e-004,
          -2.04243232e-004, -2.40337860e-004, -1.72552245e-004,
          -3.44005784e-005, -3.98430537e-004, -2.79521424e-004,
          -7.11732282e-005, 3.08139242e-005, -8.17009641e-005,
          2.56775784e-005, 5.11746985e-005, 1.30325658e-004,
          9.97333118e-005, 1.78571281e-004, 3.56164855e-005,
          -2.00237992e-004, -1.71430482e-004, 1.49909629e-005,
          4.46795857e-005, -3.24726752e-005, 1.59719944e-004,
          3.28905095e-004, -5.44536706e-005, -4.27351682e-004,
          -1.38266929e-004, 3.06336675e-004, 9.01658714e-005,
          3.83862876e-004, 3.05371417e-004, 5.92391698e-005,
          7.57015277e-006, -1.87670899e-004, -3.61482264e-004,
          -7.52389387e-005, 3.57290737e-005, 1.49430271e-004,
          3.22438660e-004, 4.52003122e-004, 3.30247945e-004,
          5.98863589e-005, -1.86491947e-004, -9.35615622e-004,
          -4.53108776e-004, 6.34159078e-005, 1.36605944e-004,
          3.70776979e-005, 2.33715778e-004, -1.03346996e-004,
          3.70353897e-004, -1.34889022e-004, -5.48021228e-004,
          -4.75261739e-004, 1.13383110e-004, 8.08131517e-005,
          3.85206338e-004, 4.71972715e-004, 1.43419529e-004,
          2.47464603e-004, -3.99477722e-005, -7.40813732e-004,
          -6.56056684e-004, 5.77481005e-005, -2.73614540e-004,
          2.60740955e-004, 3.09297466e-004, 5.49495708e-005,
          1.29751148e-004, -1.43672412e-004, -6.75319636e-004,
          -7.10974928e-005, -3.63891195e-005, 5.44788709e-005,
          -3.63236504e-005, 1.52852503e-004, -7.15344795e-005,
          -2.22305564e-004, -2.05374017e-004, -3.91075562e-004,
          -2.16072454e-004, -3.93167604e-004, -2.76978593e-004,
          2.53163656e-004, 1.14904353e-004, -1.98382608e-004,
          2.31571059e-004, 6.56589400e-005, -5.07502002e-004,
          -2.35715692e-004, 2.77550047e-004, 1.40480712e-004,
          2.70159740e-004, 1.48081948e-004, 3.51682102e-004,
          -4.63041724e-005, -1.46171486e-004, -3.71376140e-004,
          -1.71670370e-004, 1.10107751e-004, -8.31898287e-005,
          8.52393714e-005, -9.39813617e-006, 3.10451171e-004,
          -2.26209289e-004, -1.24110709e-004, -3.62726976e-004,
          -4.19758144e-004, -1.24307146e-004, -2.72083853e-004,
          6.80275480e-005, -2.05752585e-004, -2.59927358e-004,
          6.49219073e-005, 1.26120474e-004, 2.79866817e-005,
          -3.53175245e-004, -3.06219910e-004, -3.65779706e-004,
          1.20103890e-004, 8.96402562e-005, 5.19035711e-005,
          -1.92940308e-004, -1.11445115e-004, -3.75197415e-004,
          -7.58768510e-005, 2.54220304e-005, -5.92041943e-005,
          5.98467668e-005, 1.08193221e-004, -7.95495071e-005,
          1.78906848e-004, 1.99939779e-004, 1.47422688e-004,
          3.20691208e-004, 1.74322166e-004, 2.82185181e-004,
          1.67027523e-004, 2.77913176e-004, 2.29913363e-004,
          4.83610456e-005, -1.02200771e-004, 3.68458059e-005,
          -3.07069917e-004, -1.64348530e-004, -3.13366909e-004,
          -7.92262144e-005, 1.01518439e-004, 1.14178867e-004,
          -2.42533017e-004, -5.94495505e-005, 2.37527624e-004,
          -2.53837992e-004, -9.22039326e-005, -3.54148593e-004,
          -3.18657665e-004, -1.16543852e-004, -3.21069208e-004,
          2.25192940e-004, 2.72066507e-004, 4.39690921e-005,
          1.50020656e-004, 5.95020247e-005, 2.09337988e-004,
          1.73046901e-005, 1.35461800e-004, 1.71730950e-004,
          5.09658385e-005, 8.48331401e-005, 1.03241175e-004,
          -9.43662744e-005, 8.62241286e-005, -1.11401801e-004,
          -3.24551773e-004, -1.32544548e-004, -2.31046608e-004,
          -1.77670168e-004, 1.23478181e-004, 7.78883477e-005,
          -2.44428869e-004, -5.21600887e-004, -1.23090431e-004,
          -4.79078677e-004, -2.80975044e-004, -1.45972459e-004,
          -5.46612209e-005, 1.92621636e-004, 1.57761879e-005,
          2.66999734e-004, 2.46628828e-004, -1.56295253e-004,
          -8.08952958e-004, -8.01349015e-005, 1.27573148e-004,
          1.65007878e-004, -5.30345751e-005, 3.58591024e-005,
          -8.14491286e-005, 6.90071320e-005, -2.61839858e-004,
          -3.90251225e-004, -9.59928366e-005, -2.13245381e-004,
          3.67020140e-004, 3.04750167e-004, 3.21891508e-004,
          1.07483902e-004, 3.01025022e-004, -2.81403773e-004,
          -5.61243738e-004, 1.09516695e-004, 3.05251393e-004,
          2.41854814e-005, 3.18525912e-004, 2.07345438e-004,
          1.16123498e-004, 1.23609017e-004, -3.26081150e-004,
          -7.85370765e-004, -1.09684406e-004, 2.74668400e-005,
          3.44966276e-004, 3.70459253e-004, 1.80756440e-004,
          4.04554594e-005, -7.37712835e-005, -1.47124578e-004,
          -2.70359917e-004, -3.84568964e-004, -5.86149190e-006,
          6.38687197e-005, 3.52071540e-004, 3.38203652e-004,
          -2.58500688e-004, 2.60157831e-005, -6.85582287e-004,
          -7.45709171e-004, -2.13216379e-004, 3.96783493e-004,
          1.48315143e-004, 4.77987109e-004, 3.31995339e-004,
          1.63423392e-004, 1.37219060e-004, -4.47340455e-004,
          -4.80327959e-004, -2.43383183e-004, 3.14633828e-004,
          -1.16826668e-004, 3.15122743e-004, 4.82771371e-004,
          -2.28586578e-005, -4.98825684e-004, -2.00715294e-004,
          -2.05549150e-004, -1.61987220e-004, -4.07429674e-004,
          -6.42647501e-004, 5.67131501e-004, 1.05009065e-003,
          2.15220891e-004, -2.68331380e-004, -2.85599875e-004,
          -6.18547027e-004, -4.16192663e-004, -7.88478414e-004,
          1.62417942e-004, 3.42705200e-004, 2.92943907e-004,
          2.31029626e-004, -3.18259292e-004, 2.64761358e-004,
          4.87780426e-007, 3.23683344e-004, 4.44779143e-004,
          -8.46872572e-005, 4.33969195e-004, 9.75630886e-004,
          5.29773359e-004, -7.46763253e-005, 6.92481757e-004,
          -1.03719227e-004, 2.29775742e-005, -6.90748129e-005,
          -9.30875074e-004, 3.27445887e-004, 7.86695629e-004,
          1.32765199e-004, -2.25131807e-004, -1.48545776e-004,
          -6.72695052e-004, -4.36641916e-004, -9.46540444e-004,
          -6.39575708e-004, 4.17006842e-004, 4.57768649e-004,
          -3.88175453e-004, -2.91474455e-004, -2.34555017e-004,
          -3.71578237e-004, -4.23164514e-004, -6.23006781e-004,
          -5.52019163e-004, 1.69556530e-004, 7.34485919e-004,
          4.86194680e-004, 4.56571252e-006, 6.17714773e-004,
          1.73529013e-004, 3.60479426e-005, -4.00565797e-004,
          -2.20232483e-004, 5.27335214e-004, 4.54058085e-004,
          -1.28046904e-005, -4.55164009e-005, 4.66890080e-004,
          4.82419389e-004, 4.59158677e-004, -6.46880580e-005,
          2.03547475e-004, 1.80097893e-004, 1.18658078e-004,
          -6.57908968e-004, -7.16987764e-004, -4.16508381e-004,
          -2.84589856e-004, -8.35477724e-004, -1.00037571e-004,
          7.65923120e-004, -1.07643296e-004, 1.55771340e-004,
          -6.89742039e-004, -3.09050316e-004, -2.80444248e-004,
          -8.09495832e-005, -7.11116241e-004, 3.18020146e-004,
          9.57898519e-005, 2.60044297e-004, 9.78122989e-005,
          -7.09920540e-004, -6.38953119e-004, -3.10650998e-004,
          1.63480945e-004, -1.55103116e-004, -3.41362761e-006,
          6.44662301e-004, 4.21392178e-004, 2.48366036e-004,
          -7.58024224e-004, -4.53458022e-004, -1.75290654e-004,
          1.84539633e-004, -4.48781240e-004, 4.36080532e-004,
          4.06027015e-004, -2.95924983e-004, -5.21192051e-005,
          -6.63704763e-004, -4.15836141e-004, -2.16704793e-004,
          3.42869549e-004, -4.28126485e-004, 8.95614721e-005,
          3.90880043e-004, -1.05181338e-004, -1.95331086e-004,
          -7.24522979e-004, -1.36904564e-004, -3.12613265e-004,
          4.03707643e-004, -1.88403486e-004, 1.64750454e-004,
          5.32856735e-004, 2.84508511e-004, 6.13387092e-004,
          -8.47703603e-004, -3.03307112e-004, -3.39603983e-004,
          2.97408376e-004, -3.50763614e-004, 3.60251230e-004,
          5.44818700e-004, 2.11195147e-004, 7.43703567e-004,
          -7.48269958e-004, 1.92568710e-004, -2.11745442e-004,
          3.29917588e-004, -4.21693549e-004, 5.14799613e-004,
          2.75668310e-004, -1.76128073e-004, -2.84220878e-004,
          -3.40027182e-004, 3.88099463e-004, -2.96760903e-004,
          5.84298396e-004, 5.74821424e-005, 7.83600626e-005,
          -2.45727802e-004, -9.15721757e-005, -2.71239900e-004,
          -5.90845193e-005, 6.14336896e-005, -4.79292357e-004,
          -4.98659974e-005, -1.15481838e-004, -5.72808378e-004,
          1.83292679e-004, -4.75141424e-005, 6.42504892e-004,
          -2.90969620e-004, 7.91446189e-004, 1.33051130e-004,
          6.24160573e-004, 1.62524714e-006, 3.92683141e-005,
          -3.88120621e-004, -1.23021819e-004, -6.61791273e-005,
          -1.32370173e-004, 5.03253657e-004, -8.29725104e-005,
          1.43624362e-004, -4.36241011e-004, -6.95309544e-004,
          -4.08867287e-004, -1.21981629e-005, -3.04589106e-004,
          -3.21776926e-004, -2.06961122e-004, -1.02375066e-004,
          2.99532112e-004, -5.88178909e-006, -8.39339511e-004,
          -5.08656485e-005, 7.76967427e-005, 3.70875816e-004,
          2.38637105e-004, -3.63266387e-004, 2.68839911e-004,
          4.18643584e-004, 6.74221519e-005, -5.94899066e-005,
          -3.61865939e-004, 2.29694269e-004, -1.49145577e-004,
          4.18927266e-005, -1.34146976e-005, 4.22686513e-004,
          4.52134555e-004, -4.51226981e-004, -5.00696478e-004,
          2.26193224e-004, 3.46444285e-004, 3.50009359e-004,
          5.67706185e-004, 8.44210226e-005, 5.85625123e-004,
          4.35365684e-004, 3.52594594e-004, 2.20999966e-004,
          -1.95615474e-004, 8.89968433e-005, 1.95593559e-004,
          2.27482506e-005, -2.60809000e-004, 1.67344144e-004,
          -5.56618106e-005, 1.33175883e-004, -3.47968780e-005,
          -6.47123845e-004, 1.15268749e-005, 2.80562352e-004,
          -1.84911405e-004, 3.87783221e-004, -3.86457650e-005,
          -2.92816723e-004, -6.61818049e-005, -3.49243724e-004,
          -1.23413856e-005, -7.59703107e-005, 4.11729532e-004,
          4.04326885e-004, 7.04656049e-005, 2.06982382e-004,
          -1.59151401e-004, 2.81866902e-004, 4.09214445e-005,
          -7.12052512e-004, -2.96431303e-004, 6.00616971e-004,
          5.00139722e-004, 6.38448400e-004, 1.58923158e-005,
          1.67252714e-004, 3.63996878e-005, -3.92866583e-004,
          -3.55342374e-004, -3.52610223e-004, 1.80520889e-004,
          -5.83743793e-004, 4.54671535e-005, -3.35734687e-004,
          -4.13496920e-004, -2.83058616e-004, -1.04487430e-004,
          5.28519286e-006, -8.00478520e-005, 4.69424820e-004,
          -2.51381396e-004, 3.40025872e-005, -6.75548625e-004,
          -1.85624944e-004, -2.21740411e-004, 4.51191998e-004,
          -3.06723116e-004, -4.01555473e-004, 2.30058708e-004,
          -2.56053288e-004, 6.12008444e-004, -4.19465476e-004,
          7.22913028e-005, -2.66645482e-004, -8.74512989e-005,
          4.41364013e-004, -2.10647719e-004, 6.33146323e-004,
          3.19865139e-005, 4.36610862e-004, -6.35787263e-004,
          8.24959716e-004, 2.79444270e-004, 5.68172254e-004,
          2.24466785e-004, -2.74336198e-004, 4.11927816e-004,
          -1.52398075e-004, -1.15647905e-004, -4.55799833e-004,
          8.66576884e-005, -2.08610600e-005, 5.49089396e-004,
          1.02886486e-004, -8.31557205e-004, -2.14333471e-004,
          -4.64732118e-004, -6.50685746e-004, -9.13614000e-004,
          -1.75356108e-004, -3.57774639e-004, 5.63488284e-004,
          6.98689721e-004, -4.03891754e-004, 2.97569815e-004,
          -2.68489122e-004, -9.78999451e-005, -5.82497800e-004,
          7.60626921e-004, 4.28178610e-004, 7.22902711e-004,
          2.47957971e-004, -6.24306558e-004, 3.82748694e-005,
          -4.33367561e-004, -5.94816229e-004, -1.11826719e-003,
          1.92361535e-004, 1.55446935e-004, 5.01530827e-004,
          -9.74668292e-005, -8.38817679e-004, -2.04788957e-004,
          -3.29802016e-004, -4.11041867e-004, -6.45761378e-004,
          2.29008379e-004, 2.83432601e-004, 4.69728257e-004,
          -5.67979354e-004, -4.56815556e-004, -3.05893045e-004,
          -2.46230426e-004, -2.22640112e-004, -3.42790707e-004,
          4.48960491e-004, 4.44671896e-004, -5.18158195e-004,
          2.80195109e-005, -7.71999330e-005, 1.96077570e-004,
          -1.64516212e-004, -1.81394076e-004, -6.36583020e-004,
          2.65681185e-004, 4.68211016e-004, 3.02159082e-004,
          2.71310291e-005, 3.45812208e-004, 4.24324768e-004,
          3.25181143e-004, -1.88335660e-004, -1.62530749e-004,
          3.42129701e-004, 3.30713956e-004, -1.96495123e-004,
          -8.42912996e-004, -3.44233384e-004, -5.53939841e-004,
          -3.73037255e-005, -7.04168851e-005, 2.17008666e-004,
          7.77436653e-004, 6.10178395e-004, -7.26856757e-004,
          -8.99117440e-004, -4.48537961e-004, -6.34093769e-004,
          -3.39147344e-004, -5.27346681e-004, 1.52641165e-004,
          9.57117009e-004, 5.36531559e-004, -7.49917119e-004,
          -2.69268028e-004, 2.15212305e-004, 6.12495351e-004,
          8.08350800e-004, 1.17965028e-004, 6.05154957e-004,
          8.26523697e-004, 3.74680763e-004, -4.29265521e-004,
          -2.74927821e-004, -8.08514014e-005, -2.25667318e-004,
          4.22757235e-004, -3.99005403e-005, 3.36204044e-004,
          9.04147979e-004, 3.40225961e-004, -2.76842562e-004,
          -4.80556133e-004, -3.52376665e-004, -3.41315550e-004,
          -3.50564951e-004, -7.11557979e-004, -4.56409471e-005,
          6.36861252e-004, 2.71260011e-004, -1.97119865e-004,
          3.81257669e-005, -8.59085849e-005, -1.39275377e-004,
          -8.06404569e-006, -3.54466261e-004, 2.45833762e-005,
          -6.21775644e-006, -2.34842028e-005, 2.33434723e-004,
          3.72066890e-004, 1.96715424e-004, -1.08835018e-004,
          3.09537194e-004, -4.75523702e-004, 1.12157315e-004,
          4.43927391e-004, 2.67099327e-004, 1.34226662e-004,
          4.85740224e-004, 3.31807212e-004, 2.38559413e-004,
          4.58804134e-004, 7.77141613e-005, 4.86195902e-004,
          2.37063185e-004, 3.98256874e-004, 4.98097623e-004,
          2.08995465e-004, 1.45259939e-004, 1.87839236e-004,
          -8.89372222e-006, -4.33702953e-004, -4.71461135e-005,
          -1.41638244e-004, -8.40248249e-005, -6.61650483e-005,
          -4.10247478e-004, 4.63185337e-004, 7.81775219e-004,
          7.16360155e-005, -5.71482931e-004, -4.13180416e-004,
          -4.57761140e-004, -3.62987746e-004, -5.05925738e-004,
          5.15850552e-004, 3.63170839e-004, 1.70055457e-004,
          3.56941979e-004, -1.07729546e-004, 3.67531291e-004,
          1.74990360e-004, 3.53682350e-004, 5.17217792e-004,
          7.28513478e-005, 3.52634146e-004, 8.31560639e-004,
          3.23156186e-004, -3.62220948e-004, 4.08721360e-004,
          -1.73858600e-004, 1.17023934e-004, 2.40241861e-004,
          -9.37312841e-004, 4.46296734e-004, 9.45410226e-004,
          1.67685765e-004, -5.09064179e-004, -2.60697765e-004,
          -6.95566647e-004, -4.35217138e-004, -1.01784244e-003,
          -6.36765268e-004, 5.93699922e-004, 5.44064504e-004,
          1.74881791e-006, 1.00143252e-005, -9.44914209e-005,
          -4.48467414e-004, -3.42444313e-004, -8.69121810e-004,
          -4.80123621e-004, 2.55683175e-004, 9.06705507e-004,
          4.22916841e-004, -1.77630442e-004, 5.57005988e-004,
          -6.35596734e-005, -7.77407695e-005, -3.75934498e-004,
          -3.71454138e-004, 4.72183747e-004, 6.36606594e-004,
          4.31074091e-004, 1.39782453e-004, 7.46518665e-004,
          6.00178551e-004, 5.14087791e-004, -1.29078500e-004,
          -3.11254378e-004, 3.43433290e-004, 3.39666090e-004,
          -4.57717484e-004, -4.85009863e-004, -3.27987305e-004,
          -2.41585178e-004, -5.58626140e-004, -3.94616858e-004,
          7.66764046e-004, 1.24559374e-004, 9.59240788e-005,
          -7.35219452e-004, -3.98809410e-004, -3.37205071e-004,
          -2.13969688e-004, -9.07843525e-004, 1.97691377e-004,
          -3.99867458e-005, 3.06267582e-004, 2.66899646e-004,
          -3.78640834e-004, -4.73050924e-004, -6.67132190e-005,
          2.92935205e-004, 1.95689136e-004, 8.15179374e-005,
          5.49755699e-004, 4.15831280e-004, 2.60511704e-004,
          -7.24606682e-004, -3.66657390e-004, -1.44771533e-004,
          1.42536446e-004, -2.30354795e-004, 2.77381972e-004,
          3.04722169e-004, 8.27297845e-005, -6.92688991e-005,
          1.11725603e-004, -3.44949338e-004, 2.11491963e-004,
          -2.94884812e-005, 2.56543659e-004, 5.56409068e-004,
          1.64910729e-004, -6.38010897e-005, 1.22661528e-004,
          9.80876212e-005, 1.46858511e-005, 3.87440872e-004,
          1.34161324e-004, 6.97943979e-005, 2.22508650e-004,
          2.11055507e-004, -1.19170763e-004, -3.32420837e-004,
          -3.38422280e-004, -8.29168537e-004, -3.04229034e-004,
          9.88684114e-005, 1.97185698e-004, 1.49361469e-004,
          8.34491002e-005, -1.62724435e-004, -3.05653928e-004,
          -3.40047642e-004, -5.99953870e-004, -3.40299710e-004,
          1.99970542e-004, 3.50358896e-004, 2.03803895e-004,
          -3.65371874e-004, -4.84999873e-005, 2.00955241e-004,
          2.17638299e-005, -2.24135481e-004, 2.95110367e-004,
          2.20098504e-004, 4.91214123e-005, -2.61284993e-004,
          -5.75576523e-005, 3.65046522e-004, 4.72709478e-004,
          -1.42526900e-004, -6.20213046e-004, 9.54436255e-005,
          2.41230417e-004, 6.14946475e-004, 1.46856648e-004,
          -3.72298528e-004, -8.38063497e-005, -1.72462140e-004,
          -4.13805101e-004, -4.24848346e-004, -3.82987346e-004,
          1.85426499e-004, 6.66203123e-005, -1.81327880e-004,
          -2.46462645e-004, -1.14836155e-004, 5.76466882e-005,
          -1.69234700e-004, -1.88800273e-004, -2.03669653e-004,
          2.55127496e-004, 1.43317986e-004, 1.48599051e-004,
          2.89897962e-005, 1.82560485e-004, 1.97166519e-004,
          -4.07957938e-004, -9.09212918e-004, -4.50003252e-004,
          -4.80949820e-005, 2.45994481e-004, 6.71503949e-005,
          5.89112693e-004, 3.67552828e-004, 1.55402537e-004,
          -5.17146662e-004, -6.55621930e-004, -3.88458342e-004,
          3.60536214e-004, 2.64444738e-004, 4.47826256e-004,
          -1.50266369e-005, -2.15791006e-004, 2.46712472e-004,
          -2.91773671e-004, -4.35794558e-004, -3.82881815e-004,
          -4.85250384e-005, -1.11607558e-004, 2.96502054e-004,
          9.85010192e-005, -3.88772984e-004, 1.82089454e-004,
          -4.24912141e-004, -2.84487091e-004, -1.59183721e-004,
          4.11782705e-004, 1.39405573e-004, 4.45681420e-004,
          7.15538859e-004, 1.39236232e-004, 2.14921834e-004,
          -6.37081277e-004, -3.36814293e-004, -3.96928692e-004,
          2.93188030e-004, -1.11215950e-005, 7.44570687e-004,
          8.35617015e-004, 1.02688588e-004, 5.27075725e-004,
          -5.45204966e-004, 3.18574981e-004, -3.90113768e-004,
          -1.41648388e-005, -4.27077117e-004, 7.48366874e-004,
          1.27974738e-004, -3.56153381e-004, -2.16328874e-004,
          -7.89362821e-004, -3.88360349e-004, -3.71338509e-004,
          1.66141603e-004, -3.63251675e-005, 5.13035629e-004,
          2.86207331e-004, 3.01429245e-005, 6.90977322e-005,
          -6.00200612e-004, -2.99374369e-004, -4.75819630e-004,
          -9.00884334e-005, -3.80369253e-004, 5.35474624e-004,
          4.74510656e-004, 2.10509956e-004, 6.83834020e-004,
          -2.92798941e-004, 2.81144079e-004, -1.11527217e-004,
          2.98430736e-004, -2.55392486e-004, 3.53401469e-004,
          -3.73835384e-004, -2.73109734e-004, 2.62092624e-004,
          -7.21447286e-005, 4.33863577e-004, -9.12445248e-005,
          2.68833159e-004, -3.20895953e-004, -4.41823155e-004,
          2.72116333e-004, 5.59398497e-004, 7.12256297e-004,
          -4.25310485e-004, -2.05056553e-004, -3.69438603e-005,
          -3.70933558e-005, -2.66208721e-004, 2.02592142e-004,
          -2.58518150e-004, -1.93715765e-004, 2.46128417e-004,
          -4.29452630e-004, -1.67255828e-004, -1.47516665e-004,
          -1.18797987e-004, -1.55593138e-004, -2.66659685e-004,
          -3.05940979e-004, -3.69427253e-005, 1.56644732e-004,
          1.20566037e-005, -4.66122787e-004, 2.16701428e-005,
          3.65430984e-004, 3.06779184e-005, -2.96475249e-004,
          7.29571504e-004, 4.46138351e-004, 3.68441397e-004,
          4.88335732e-004, -2.37724758e-004, 4.80928749e-004,
          3.90048954e-004, 4.65634803e-004, 7.23825127e-004,
          8.62163943e-005, -1.19440701e-004, -1.33220776e-004,
          -4.03811864e-004, -7.06765801e-004, -6.98901422e-005,
          1.42088917e-004, 3.35593242e-004, -6.85849591e-005,
          1.12719834e-003, 6.09076524e-004, 3.14550416e-004,
          2.36441792e-005, -4.56248876e-004, -5.29246797e-008,
          2.85245827e-004, 6.16940961e-004, 1.12123846e-003,
          4.37295676e-004, 2.79185304e-004, 3.86971020e-004,
          3.27249727e-004, -1.65623729e-004, 2.58283515e-004,
          1.77752197e-004, 2.61422159e-004, 3.51589377e-004,
          -4.03953192e-004, -2.73764890e-004, 4.05048399e-004,
          2.66256218e-004, 4.73895809e-004, 1.47671541e-004,
          6.93275069e-004, -8.13647057e-005, -3.48367117e-004,
          5.61100896e-004, 5.79567335e-004, 2.63846247e-004,
          2.57851876e-004, -7.76570989e-004, -6.62056336e-005,
          6.03990375e-005, 2.41687259e-004, 5.92573429e-004,
          -3.49403737e-004, -9.55180949e-005, -3.14620820e-006,
          1.79466268e-004, 6.02665823e-005, -2.73120007e-004,
          3.70002032e-004, -1.18259173e-004, -2.35239189e-004,
          -8.63209716e-005, -3.65770771e-004, 5.30414691e-005,
          -2.82575493e-004, 6.36372599e-004, -3.99133161e-004,
          2.66337243e-004, -1.34435963e-004, 5.24442075e-005,
          8.33873404e-004, -5.12318802e-004, 4.73084583e-006,
          -3.90555128e-004, 9.27094443e-005, -5.86914655e-004,
          7.05711194e-004, 2.15991226e-004, 8.58972722e-004,
          -1.79282972e-004, -2.58046057e-004, -9.63937855e-005,
          -1.60485826e-004, 2.77024548e-004, -6.25898654e-004,
          1.67290404e-004, 2.65208128e-005, -1.59926960e-004,
          6.45695487e-004, -4.64081939e-004, -7.37788432e-005,
          -5.14780055e-004, -5.42222057e-004, -5.61878143e-004,
          2.03466392e-004, 1.18495132e-004, 4.52550856e-004,
          8.27282260e-004, -1.31018285e-004, 2.05490258e-004,
          -3.59098223e-004, -1.09401051e-004, -4.98643145e-004,
          3.27384623e-004, 4.03445301e-005, 6.75588090e-004,
          4.42505319e-004, 2.11514634e-004, 3.49859532e-004,
          -3.98959877e-004, -6.32730662e-004, -5.62476343e-004,
          1.14621602e-004, 3.04262649e-004, 5.97181090e-004,
          6.05833076e-004, -1.03129285e-004, 1.17303636e-004,
          -3.59904603e-004, -4.01983445e-004, -6.93339738e-004,
          -8.81897504e-005, -1.49054496e-004, 3.46620014e-004,
          3.48705682e-004, 8.67665949e-005, 3.08287505e-004,
          -3.24555585e-004, -2.60785862e-004, -5.15259395e-004,
          1.48247682e-006, -5.39654284e-004, 4.51139895e-005,
          2.90540629e-004, 3.40245140e-004, 1.46078644e-004,
          -4.05973900e-004, -5.37847693e-004, -3.55407567e-004,
          2.39174828e-004, 3.16567253e-004, 3.06341361e-004,
          4.79274095e-005, 4.22491372e-004, 1.01548001e-004,
          -2.54133138e-005, -7.08359526e-004, -2.98208295e-004,
          3.52437084e-004, 1.99500151e-004, -2.23454423e-004,
          4.45898448e-004, -2.98809828e-005, 1.06258703e-004,
          -1.46592036e-004, -9.17619909e-005, -1.66430356e-004,
          3.26286186e-004, -1.36188843e-004, 1.16551644e-004,
          -1.47002967e-004, 4.39705473e-005, 2.07035584e-004,
          -3.40504979e-004, -4.81118535e-004, -3.20059858e-004,
          1.67875351e-005, -2.61530076e-004, -3.41610168e-004,
          -4.82014511e-005, 3.23359011e-004, 5.65628929e-004,
          4.44883131e-004, -1.36100469e-004, 1.74143453e-004,
          5.60181623e-004, 2.21612019e-004, -1.79427996e-004,
          -2.75210914e-006, -4.95610257e-005, -1.27267776e-005,
          2.19373222e-004, -3.26108675e-005, -5.47537275e-005,
          -1.36354993e-005, -1.64254583e-004, -5.77703395e-005,
          -3.70074158e-005, 4.20200464e-004, 3.69692658e-004,
          -1.59013056e-004, -3.25102126e-004, -1.88777471e-004,
          1.09241599e-004, 4.06609324e-005, -3.29345145e-004,
          -1.95925768e-005, 2.03327916e-004, 1.81443407e-004,
          -4.35419643e-004, -5.21297392e-004, -4.85276541e-004,
          -4.54611698e-004, -2.59300490e-004, -1.79519266e-004,
          3.85805557e-004, 1.38033036e-004, -9.69114262e-005,
          1.26986415e-004, -4.41496290e-004, -9.23076441e-005,
          -1.92052044e-004, -6.04607012e-005, 1.79073133e-004,
          6.16677455e-004, 1.39017677e-004, 3.06203037e-005,
          2.93407706e-004, -3.97957483e-005, 2.89613294e-004,
          -6.13528246e-005, 4.09196873e-005, 5.66840637e-004,
          2.71415745e-004, 2.11962833e-004, -3.67652538e-005,
          -4.91290062e-004, -9.17188067e-004, -4.48503706e-004,
          -4.07015061e-004, -2.15804233e-004, 2.43297254e-004,
          2.34009960e-004, -2.68043314e-005, -3.50637129e-005,
          -1.53086672e-004, -3.58229008e-004, -1.95581204e-004,
          -1.77670168e-004, -1.92933745e-004, 2.66061892e-004,
          5.45089424e-004, 9.34556374e-005, -6.81209131e-005,
          2.20025046e-004, -1.64524754e-004, 2.35039290e-004,
          5.44328468e-005, 2.74770398e-004, 6.88961940e-004,
          1.70464205e-004, -6.77682037e-005, -1.13520422e-004,
          -6.87315187e-005, -3.31207411e-004, 2.18679415e-004,
          -5.18379493e-005, 8.37905172e-005, 3.24186229e-004,
          3.64965264e-004, -1.45165628e-004, -2.03741249e-004,
          -2.13080290e-004, -5.56935440e-004, -1.71527296e-004,
